{"learner":{"attributes":{"scikit_learn":"{\"_estimator_type\": \"classifier\"}"},"feature_names":[],"feature_types":[],"gradient_booster":{"model":{"gbtree_model_param":{"num_parallel_tree":"1","num_trees":"200"},"iteration_indptr":[0,1,2,3,4,5,6,7,8,9,10,11,12,13,14,15,16,17,18,19,20,21,22,23,24,25,26,27,28,29,30,31,32,33,34,35,36,37,38,39,40,41,42,43,44,45,46,47,48,49,50,51,52,53,54,55,56,57,58,59,60,61,62,63,64,65,66,67,68,69,70,71,72,73,74,75,76,77,78,79,80,81,82,83,84,85,86,87,88,89,90,91,92,93,94,95,96,97,98,99,100,101,102,103,104,105,106,107,108,109,110,111,112,113,114,115,116,117,118,119,120,121,122,123,124,125,126,127,128,129,130,131,132,133,134,135,136,137,138,139,140,141,142,143,144,145,146,147,148,149,150,151,152,153,154,155,156,157,158,159,160,161,162,163,164,165,166,167,168,169,170,171,172,173,174,175,176,177,178,179,180,181,182,183,184,185,186,187,188,189,190,191,192,193,194,195,196,197,198,199,200],"tree_info":[0,0,0,0,0,0,0,0,0,0,0,0,0,0,0,0,0,0,0,0,0,0,0,0,0,0,0,0,0,0,0,0,0,0,0,0,0,0,0,0,0,0,0,0,0,0,0,0,0,0,0,0,0,0,0,0,0,0,0,0,0,0,0,0,0,0,0,0,0,0,0,0,0,0,0,0,0,0,0,0,0,0,0,0,0,0,0,0,0,0,0,0,0,0,0,0,0,0,0,0,0,0,0,0,0,0,0,0,0,0,0,0,0,0,0,0,0,0,0,0,0,0,0,0,0,0,0,0,0,0,0,0,0,0,0,0,0,0,0,0,0,0,0,0,0,0,0,0,0,0,0,0,0,0,0,0,0,0,0,0,0,0,0,0,0,0,0,0,0,0,0,0,0,0,0,0,0,0,0,0,0,0,0,0,0,0,0,0,0,0,0,0,0,0,0,0,0,0,0,0],"trees":[{"base_weights":[1.055732E-7,3.3664435E-2,-1.3688993E0,6.893955E-2,-9.446145E-1,4.7747656E-3,-1.6436992E0,-3.3968455E-1,1.4222585E-1,-1.1738695E0,2.7160553E-2,-2.7094742E-2,-9.219334E-2,-4.4521514E-1,8.9240247E-1,2.2119613E-2,4.102294E-1,1.3223417E-2,-1.442971E0,-3.3237776E-1,-7.4222185E-2,4.7747656E-3,5.9543263E-2,-1.2595133E-2,6.281354E-2,5.4400116E-1,-1.1068288E0,-8.515748E-2,4.7747656E-3,4.632845E-2,-2.1216843E-2,-3.0643404E-3,4.4074375E-2,-4.087176E-3,3.397512E-2,-7.551155E-2,1.3223417E-2],"categories":[],"categories_nodes":[],"categories_segments":[],"categories_sizes":[],"default_left":[0,0,0,0,0,0,0,0,0,0,0,0,0,0,0,0,0,0,0,0,0,0,0,0,0,0,0,0,0,0,0,0,0,0,0,0,0],"id":0,"left_children":[1,3,5,7,9,-1,11,13,15,17,-1,-1,-1,19,21,23,25,-1,27,29,-1,-1,-1,31,-1,33,35,-1,-1,-1,-1,-1,-1,-1,-1,-1,-1],"loss_changes":[1.5656669E1,1.1508071E1,3.4385214E0,9.660718E0,4.5972567E0,0E0,5.272331E-1,6.782583E0,8.774523E0,4.397379E0,0E0,0E0,0E0,4.8892E0,8.869617E-1,8.134101E0,1.772791E1,0E0,3.723011E0,5.3359685E0,0E0,0E0,0E0,8.120677E0,0E0,6.687826E0,4.364522E0,0E0,0E0,0E0,0E0,0E0,0E0,0E0,0E0,0E0,0E0],"parents":[2147483647,0,0,1,1,2,2,3,3,4,4,6,6,7,7,8,8,9,9,13,13,14,14,15,15,16,16,18,18,19,19,23,23,25,25,26,26],"right_children":[2,4,6,8,10,-1,12,14,16,18,-1,-1,-1,20,22,24,26,-1,28,30,-1,-1,-1,32,-1,34,36,-1,-1,-1,-1,-1,-1,-1,-1,-1,-1],"split_conditions":[1E0,1E0,0E0,1E0,1E0,4.7747656E-3,0E0,1E0,1E0,0E0,2.7160553E-2,-2.7094742E-2,-9.219334E-2,1E0,1E0,1E0,1E0,1.3223417E-2,1E0,0E0,-7.4222185E-2,4.7747656E-3,5.9543263E-2,1E0,6.281354E-2,0E0,2E0,-8.515748E-2,4.7747656E-3,4.632845E-2,-2.1216843E-2,-3.0643404E-3,4.4074375E-2,-4.087176E-3,3.397512E-2,-7.551155E-2,1.3223417E-2],"split_indices":[771,796,617,868,919,0,281,713,898,542,0,0,0,661,887,733,698,0,840,264,0,0,0,802,0,699,880,0,0,0,0,0,0,0,0,0,0],"split_type":[0,0,0,0,0,0,0,0,0,0,0,0,0,0,0,0,0,0,0,0,0,0,0,0,0,0,0,0,0,0,0,0,0,0,0,0,0],"sum_hessian":[3.3774872E2,3.305941E2,7.154648E0,3.1998547E2,1.0608616E1,1.23356E0,5.921088E0,4.810884E1,2.7187662E2,9.375056E0,1.23356E0,1.480272E0,4.440816E0,4.4901585E1,3.207256E0,1.8848796E2,8.338866E1,1.480272E0,7.894784E0,4.169433E1,3.207256E0,1.23356E0,1.973696E0,1.8429387E2,4.194104E0,7.7220856E1,6.1678E0,6.661224E0,1.23356E0,2.220408E0,3.947392E1,1.7565895E2,8.63492E0,1.3815872E1,6.3404984E1,4.687528E0,1.480272E0],"tree_param":{"num_deleted":"0","num_feature":"929","num_nodes":"37","size_leaf_vector":"1"}},{"base_weights":[-1.5601488E-4,1.9796733E-2,-7.49055E-2,-2.7855523E-2,6.851026E-1,-1.420449E-1,2.4539965E-1,8.325588E-1,-3.4230355E-2,-1.7351766E-1,6.068639E-2,3.695545E-1,-1.227741E0,9.561113E-1,-1.6688094E-2,-1.201575E-1,-8.477201E-1,-1.0161382E0,4.351295E-1,-1.5153142E0,5.92573E-3,-1.7961277E-2,1.0675721E0,-8.065935E-3,4.9543206E-2,-5.452749E-2,1.18118115E-2,4.8086136E-3,-7.5517476E-2,1.4650682E-2,4.7165956E-2,-8.638205E-2,-2.5188176E-2,-1.7631741E-2,5.9746172E-2],"categories":[],"categories_nodes":[],"categories_segments":[],"categories_sizes":[],"default_left":[0,0,0,0,0,0,0,0,0,0,0,0,0,0,0,0,0,0,0,0,0,0,0,0,0,0,0,0,0,0,0,0,0,0,0],"id":1,"left_children":[1,3,-1,5,7,9,11,13,-1,15,-1,17,19,21,-1,23,25,27,29,31,-1,-1,33,-1,-1,-1,-1,-1,-1,-1,-1,-1,-1,-1,-1],"loss_changes":[1.0152097E1,1.064638E1,0E0,9.825281E0,5.102975E0,9.680149E0,1.7434189E1,3.303977E0,0E0,7.7323785E0,0E0,8.292469E0,3.0629644E0,3.1673374E0,0E0,9.441391E0,4.4180336E0,2.455984E0,5.731742E0,4.6332836E-1,0E0,0E0,3.6329365E0,0E0,0E0,0E0,0E0,0E0,0E0,0E0,0E0,0E0,0E0,0E0,0E0],"parents":[2147483647,0,0,1,1,3,3,4,4,5,5,6,6,7,7,9,9,11,11,12,12,13,13,15,15,16,16,17,17,18,18,19,19,22,22],"right_children":[2,4,-1,6,8,10,12,14,-1,16,-1,18,20,22,-1,24,26,28,30,32,-1,-1,34,-1,-1,-1,-1,-1,-1,-1,-1,-1,-1,-1,-1],"split_conditions":[1E0,1E0,-7.49055E-2,1E0,3E0,1E0,1E0,3E0,-3.4230355E-2,1E0,6.068639E-2,0E0,3E0,0E0,-1.6688094E-2,1E0,1E0,1E0,1E0,1E0,5.92573E-3,-1.7961277E-2,0E0,-8.065935E-3,4.9543206E-2,-5.452749E-2,1.18118115E-2,4.8086136E-3,-7.5517476E-2,1.4650682E-2,4.7165956E-2,-8.638205E-2,-2.5188176E-2,-1.7631741E-2,5.9746172E-2],"split_indices":[236,382,0,898,827,733,698,922,0,515,0,361,841,701,0,802,879,903,924,602,0,0,760,0,0,0,0,0,0,0,0,0,0,0,0],"split_type":[0,0,0,0,0,0,0,0,0,0,0,0,0,0,0,0,0,0,0,0,0,0,0,0,0,0,0,0,0,0,0,0,0,0,0],"sum_hessian":[3.376757E2,3.342108E2,3.4649038E0,3.127671E2,2.1443682E1,2.2092564E2,9.184145E1,1.971358E1,1.7301034E0,2.1676569E2,4.159959E0,8.539369E1,6.4477577E0,1.7988253E1,1.7253265E0,2.0195969E2,1.4806E1,3.203495E0,8.21902E1,5.209402E0,1.2383556E0,1.2315832E0,1.675667E1,1.9556903E2,6.3906517E0,1.209122E1,2.7147796E0,1.2332498E0,1.9702452E0,6.546063E1,1.6729565E1,3.7205396E0,1.4888625E0,1.2333627E0,1.5523307E1],"tree_param":{"num_deleted":"0","num_feature":"929","num_nodes":"35","size_leaf_vector":"1"}},{"base_weights":[-5.685808E-4,3.1816833E-2,-1.3106475E0,6.513988E-2,-8.872037E-1,-1.5740223E0,4.8475536E-3,1.7361265E-2,7.181344E-1,-1.1040916E0,2.6317576E-2,-1.7886778E-2,-8.866356E-2,5.675429E-2,-8.853608E-1,8.629617E-1,-2.4600927E-2,-1.3616282E0,1.3496652E-2,1.0222311E0,2.5965635E-2,-1.1522379E0,3.3396974E-2,1.0973006E0,1.2500297E-1,-8.494493E-2,-5.8737122E-3,-1.6442223E-2,6.971853E-2,-1.7976152E-2,4.963444E-3,-7.408288E-2,2.022388E-2,6.1404556E-2,7.663715E-3,5.258593E-2,-2.0942587E-2],"categories":[],"categories_nodes":[],"categories_segments":[],"categories_sizes":[],"default_left":[0,0,0,0,0,0,0,0,0,0,0,0,0,0,0,0,0,0,0,0,0,0,0,0,0,0,0,0,0,0,0,0,0,0,0,0,0],"id":2,"left_children":[1,3,5,7,9,11,-1,13,15,17,-1,-1,-1,19,21,23,-1,25,-1,27,29,31,-1,33,35,-1,-1,-1,-1,-1,-1,-1,-1,-1,-1,-1,-1],"loss_changes":[1.4405212E1,1.0205313E1,3.1890945E0,9.992785E0,4.156699E0,1.0517902E0,0E0,1.0713195E1,4.252306E0,4.0597515E0,0E0,0E0,0E0,8.541956E0,5.991997E0,3.2987585E0,0E0,3.5570354E0,0E0,4.92435E0,7.958259E0,6.3006516E0,0E0,1.6578026E0,3.4227762E0,0E0,0E0,0E0,0E0,0E0,0E0,0E0,0E0,0E0,0E0,0E0,0E0],"parents":[2147483647,0,0,1,1,2,2,3,3,4,4,5,5,7,7,8,8,9,9,13,13,14,14,15,15,17,17,19,19,20,20,21,21,23,23,24,24],"right_children":[2,4,6,8,10,12,-1,14,16,18,-1,-1,-1,20,22,24,-1,26,-1,28,30,32,-1,34,36,-1,-1,-1,-1,-1,-1,-1,-1,-1,-1,-1,-1],"split_conditions":[1E0,1E0,1E0,1E0,1E0,0E0,4.8475536E-3,1E0,2E0,1E0,2.6317576E-2,-1.7886778E-2,-8.866356E-2,0E0,1E0,1E0,-2.4600927E-2,1E0,1.3496652E-2,0E0,1E0,1E0,3.3396974E-2,3E0,1E0,-8.494493E-2,-5.8737122E-3,-1.6442223E-2,6.971853E-2,-1.7976152E-2,4.963444E-3,-7.408288E-2,2.022388E-2,6.1404556E-2,7.663715E-3,5.258593E-2,-2.0942587E-2],"split_indices":[771,796,699,382,919,281,0,775,846,840,0,0,0,775,918,626,0,865,0,610,868,470,0,880,903,0,0,0,0,0,0,0,0,0,0,0,0],"split_type":[0,0,0,0,0,0,0,0,0,0,0,0,0,0,0,0,0,0,0,0,0,0,0,0,0,0,0,0,0,0,0,0,0,0,0,0,0],"sum_hessian":[3.3754294E2,3.303523E2,7.1906614E0,3.196897E2,1.0662607E1,5.9576893E0,1.232972E0,2.9884988E2,2.0839804E1,9.434028E0,1.2285788E0,1.2320758E0,4.7256136E0,2.872519E2,1.1597981E1,1.8868572E1,1.9712327E0,7.952496E0,1.4815321E0,7.882094E0,2.793698E2,1.011781E1,1.4801707E0,1.3951369E1,4.917202E0,5.968913E0,1.983583E0,1.7273146E0,6.1547794E0,4.4012318E1,2.3535748E2,8.390496E0,1.7273146E0,1.1989389E1,1.9619805E0,1.4731561E0,3.444046E0],"tree_param":{"num_deleted":"0","num_feature":"929","num_nodes":"37","size_leaf_vector":"1"}},{"base_weights":[-6.734732E-4,1.8207949E-2,-7.0468076E-2,-3.57765E-3,6.2210917E-2,-4.760198E-2,6.1566365E-1,-1.6157752E-1,2.226066E-1,7.548921E-1,-3.1874597E-2,-1.10389635E-1,-8.068027E-1,3.4233162E-1,-1.1800343E0,-1.8436065E-2,8.787256E-1,-7.4721375E-3,4.7571197E-2,-2.2472465E-2,-8.430362E-2,-4.8944738E-2,2.028932E-2,-7.276743E-2,5.728432E-3,5.115841E-2,-1.677946E-2],"categories":[],"categories_nodes":[],"categories_segments":[],"categories_sizes":[],"default_left":[0,0,0,0,0,0,0,0,0,0,0,0,0,0,0,0,0,0,0,0,0,0,0,0,0,0,0],"id":3,"left_children":[1,3,-1,5,-1,7,9,11,13,15,-1,17,19,21,23,-1,25,-1,-1,-1,-1,-1,-1,-1,-1,-1,-1],"loss_changes":[9.026411E0,8.949702E0,0E0,9.027309E0,0E0,9.554783E0,4.31612E0,7.1098404E0,1.5872995E1,3.1401634E0,0E0,8.564285E0,4.2263317E0,7.577629E0,2.828926E0,0E0,3.5928068E0,0E0,0E0,0E0,0E0,0E0,0E0,0E0,0E0,0E0,0E0],"parents":[2147483647,0,0,1,1,3,3,5,5,6,6,7,7,8,8,9,9,11,11,12,12,13,13,14,14,16,16],"right_children":[2,4,-1,6,-1,8,10,12,14,16,-1,18,20,22,24,-1,26,-1,-1,-1,-1,-1,-1,-1,-1,-1,-1],"split_conditions":[1E0,1E0,-7.0468076E-2,1E0,6.2210917E-2,1E0,3E0,1E0,1E0,0E0,-3.1874597E-2,1E0,1E0,0E0,3E0,-1.8436065E-2,3E0,-7.4721375E-3,4.7571197E-2,-2.2472465E-2,-8.430362E-2,-4.8944738E-2,2.028932E-2,-7.276743E-2,5.728432E-3,5.115841E-2,-1.677946E-2],"split_indices":[236,733,0,382,0,898,827,515,698,114,0,802,838,361,827,0,922,0,0,0,0,0,0,0,0,0,0],"split_type":[0,0,0,0,0,0,0,0,0,0,0,0,0,0,0,0,0,0,0,0,0,0,0,0,0,0,0],"sum_hessian":[3.3739908E2,3.3391058E2,3.4885125E0,3.2906042E2,4.8501587E0,3.0808084E2,2.0979565E1,2.1696555E2,9.1115295E1,1.9239609E1,1.7399573E0,2.0210312E2,1.4862434E1,8.464611E1,6.469188E0,1.7135963E0,1.7526012E1,1.957623E2,6.340809E0,1.1642035E1,3.2204008E0,3.2178953E0,8.1428215E1,5.232304E0,1.2368844E0,1.5803588E1,1.722424E0],"tree_param":{"num_deleted":"0","num_feature":"929","num_nodes":"27","size_leaf_vector":"1"}},{"base_weights":[-1.1570057E-3,2.8683258E-2,-8.375088E-1,8.151976E-1,-5.0715515E-3,-1.0433637E0,2.5413131E-2,9.6004516E-1,-1.7151894E-2,1.2853252E-2,-7.4878186E-2,1.4386072E-2,-1.2957257E0,1.0935836E0,8.702508E-3,-8.219085E-1,4.6356477E-2,-2.8263791E-3,-1.5347096E0,3.5540615E-3,1.2242436E0,3.3759188E-2,-1.0944922E0,-3.591327E-1,1.22768655E-1,-8.525088E-2,-3.093209E-2,6.946023E-2,4.9210396E-3,-6.809815E-2,2.6229477E-2,-2.3256205E-2,4.3085154E-2,1.1611567E-2,-7.96745E-3],"categories":[],"categories_nodes":[],"categories_segments":[],"categories_sizes":[],"default_left":[0,0,0,0,0,0,0,0,0,0,0,0,0,0,0,0,0,0,0,0,0,0,0,0,0,0,0,0,0,0,0,0,0,0,0],"id":4,"left_children":[1,3,5,7,9,11,-1,13,-1,15,-1,-1,17,19,-1,21,23,-1,25,-1,27,-1,29,31,33,-1,-1,-1,-1,-1,-1,-1,-1,-1,-1],"loss_changes":[8.463404E0,8.698145E0,3.7667809E0,2.5911846E0,8.446134E0,3.8865652E0,0E0,1.0950794E0,0E0,8.770752E0,0E0,0E0,2.5711355E0,1.2862415E0,0E0,5.67754E0,9.374836E0,0E0,1.1306E-1,0E0,1.5444918E0,0E0,5.3132467E0,6.612602E0,7.8851585E0,0E0,0E0,0E0,0E0,0E0,0E0,0E0,0E0,0E0,0E0],"parents":[2147483647,0,0,1,1,2,2,3,3,4,4,5,5,7,7,9,9,12,12,13,13,15,15,16,16,18,18,20,20,22,22,23,23,24,24],"right_children":[2,4,6,8,10,12,-1,14,-1,16,-1,-1,18,20,-1,22,24,-1,26,-1,28,-1,30,32,34,-1,-1,-1,-1,-1,-1,-1,-1,-1,-1],"split_conditions":[1E0,0E0,1E0,1E0,1E0,0E0,2.5413131E-2,1E0,-1.7151894E-2,0E0,-7.4878186E-2,1.4386072E-2,0E0,0E0,8.702508E-3,0E0,1E0,-2.8263791E-3,1E0,3.5540615E-3,2E0,3.3759188E-2,1E0,1E0,1E0,-8.525088E-2,-3.093209E-2,6.946023E-2,4.9210396E-3,-6.809815E-2,2.6229477E-2,-2.3256205E-2,4.3085154E-2,1.1611567E-2,-7.96745E-3],"split_indices":[796,660,919,749,236,542,0,681,0,738,0,0,685,213,0,279,868,0,899,0,887,0,877,713,638,0,0,0,0,0,0,0,0,0,0],"split_type":[0,0,0,0,0,0,0,0,0,0,0,0,0,0,0,0,0,0,0,0,0,0,0,0,0,0,0,0,0,0,0,0,0,0,0],"sum_hessian":[3.371574E2,3.264748E2,1.0682617E1,1.2482064E1,3.1399274E2,9.460247E0,1.2223699E0,1.1246682E1,1.2353827E0,3.1124606E2,2.7466714E0,1.4853969E0,7.9748507E0,9.278888E0,1.9677944E0,1.1101845E1,3.0014423E2,1.489243E0,6.485607E0,1.2262982E0,8.052589E0,1.482521E0,9.619324E0,4.700537E1,2.5313885E2,4.7426558E0,1.7429515E0,6.819428E0,1.2331614E0,8.391809E0,1.2275139E0,4.381999E1,3.1853824E0,1.8250362E2,7.063525E1],"tree_param":{"num_deleted":"0","num_feature":"929","num_nodes":"35","size_leaf_vector":"1"}},{"base_weights":[-1.2795338E-3,2.9503686E-2,-1.2413055E0,5.9773006E-2,-8.024002E-1,5.5905553E-3,-1.4968706E0,9.4120756E-2,-7.5145406E-1,-1.0007364E0,2.4768915E-2,-2.4971673E-2,-8.381204E-2,1.3717672E-1,-5.475426E-1,-1.1510605E0,2.8638643E-1,1.3968291E-2,-1.2432518E0,1.3459897E-2,4.332034E-1,1.8843932E-1,-9.6387666E-1,-1.4556556E0,2.6036808E-2,5.807164E-2,-4.3232534E-2,-7.3740765E-2,5.707876E-3,-3.3652845E-3,2.770613E-2,5.601659E-2,1.5320099E-2,3.0510316E-2,-3.077682E-2,-7.07266E-2,1.88358E-2,-6.0672075E-3,-8.6136594E-2],"categories":[],"categories_nodes":[],"categories_segments":[],"categories_sizes":[],"default_left":[0,0,0,0,0,0,0,0,0,0,0,0,0,0,0,0,0,0,0,0,0,0,0,0,0,0,0,0,0,0,0,0,0,0,0,0,0,0,0],"id":5,"left_children":[1,3,5,7,9,-1,11,13,15,17,-1,-1,-1,19,21,23,25,-1,27,29,31,33,35,37,-1,-1,-1,-1,-1,-1,-1,-1,-1,-1,-1,-1,-1,-1,-1],"loss_changes":[1.2938287E1,8.377319E0,3.0066013E0,8.989798E0,3.502728E0,0E0,4.1082668E-1,8.58384E0,5.7682867E0,3.5960388E0,0E0,0E0,0E0,1.0593541E1,6.177109E0,5.6808558E0,5.482652E0,0E0,2.9914627E0,8.995285E0,7.0863037E0,3.0564215E0,8.181753E0,2.7990074E0,0E0,0E0,0E0,0E0,0E0,0E0,0E0,0E0,0E0,0E0,0E0,0E0,0E0,0E0,0E0],"parents":[2147483647,0,0,1,1,2,2,3,3,4,4,6,6,7,7,8,8,9,9,13,13,14,14,15,15,16,16,18,18,19,19,20,20,21,21,22,22,23,23],"right_children":[2,4,6,8,10,-1,12,14,16,18,-1,-1,-1,20,22,24,26,-1,28,30,32,34,36,38,-1,-1,-1,-1,-1,-1,-1,-1,-1,-1,-1,-1,-1,-1,-1],"split_conditions":[1E0,1E0,0E0,1E0,1E0,5.5905553E-3,0E0,1E0,1E0,0E0,2.4768915E-2,-2.4971673E-2,-8.381204E-2,1E0,2E0,1E0,2E0,1.3968291E-2,1E0,1E0,0E0,1E0,3E0,0E0,2.6036808E-2,5.807164E-2,-4.3232534E-2,-7.3740765E-2,5.707876E-3,-3.3652845E-3,2.770613E-2,5.601659E-2,1.5320099E-2,3.0510316E-2,-3.077682E-2,-7.07266E-2,1.88358E-2,-6.0672075E-3,-8.6136594E-2],"split_indices":[771,796,730,775,919,0,773,698,875,542,0,0,0,898,895,918,828,0,840,213,199,638,922,716,0,0,0,0,0,0,0,0,0,0,0,0,0,0,0],"split_type":[0,0,0,0,0,0,0,0,0,0,0,0,0,0,0,0,0,0,0,0,0,0,0,0,0,0,0,0,0,0,0,0,0,0,0,0,0,0,0],"sum_hessian":[3.369877E2,3.297773E2,7.210401E0,3.19095E2,1.0682312E1,1.2348504E0,5.975551E0,3.0698123E2,1.2113757E1,9.464727E0,1.2175848E0,1.4876173E0,4.4879336E0,2.8841467E2,1.8566565E1,8.6674E0,3.4463573E0,1.4832957E0,7.981432E0,2.0414354E2,8.4271126E1,6.905908E0,1.1660656E1,7.4409704E0,1.2264299E0,1.9527771E0,1.4935801E0,6.744397E0,1.2370347E0,1.783732E2,2.5770338E1,1.1907868E1,7.236326E1,4.687731E0,2.218177E0,8.685704E0,2.974952E0,1.4835429E0,5.9574275E0],"tree_param":{"num_deleted":"0","num_feature":"929","num_nodes":"39","size_leaf_vector":"1"}},{"base_weights":[-1.6038492E-3,-3.7682325E-2,6.611008E-1,-1.8244429E-2,-7.4308194E-2,1.5741782E-1,1.1324905E0,-6.33576E-2,6.0633487E-1,-4.8045543E-1,5.4996878E-2,6.882549E-2,9.275402E-3,-8.6548954E-2,5.872773E-2,7.4417925E-1,-3.0433705E-2,-9.666882E-1,3.4359664E-2,5.193082E-1,-1.350321E-1,8.636396E-1,-1.6103327E-2,5.8874725E-3,-6.795665E-2,3.8335156E-2,-5.094424E-2,3.8157467E-2,-8.3950525E-3,-1.9451832E-2,4.888643E-2],"categories":[],"categories_nodes":[],"categories_segments":[],"categories_sizes":[],"default_left":[0,0,0,0,0,0,0,0,0,0,0,0,0,0,0,0,0,0,0,0,0,0,0,0,0,0,0,0,0,0,0],"id":6,"left_children":[1,3,5,7,-1,9,11,13,15,17,-1,-1,-1,19,-1,21,-1,23,-1,25,27,29,-1,-1,-1,-1,-1,-1,-1,-1,-1],"loss_changes":[8.098788E0,9.016349E0,3.9741158E0,8.99741E0,0E0,6.30984E0,1.79494E0,8.640923E0,4.0560846E0,4.3154736E0,0E0,0E0,0E0,8.673874E0,0E0,2.796506E0,0E0,2.2691326E0,0E0,9.1184845E0,8.15807E0,2.9601564E0,0E0,0E0,0E0,0E0,0E0,0E0,0E0,0E0,0E0],"parents":[2147483647,0,0,1,1,2,2,3,3,5,5,6,6,7,7,8,8,9,9,13,13,15,15,17,17,19,19,20,20,21,21],"right_children":[2,4,6,8,-1,10,12,14,16,18,-1,-1,-1,20,-1,22,-1,24,-1,26,28,30,-1,-1,-1,-1,-1,-1,-1,-1,-1],"split_conditions":[1E0,1E0,2E0,1E0,-7.4308194E-2,3E0,1E0,1E0,3E0,1E0,5.4996878E-2,6.882549E-2,9.275402E-3,0E0,5.872773E-2,3E0,-3.0433705E-2,0E0,3.4359664E-2,2E0,0E0,0E0,-1.6103327E-2,5.8874725E-3,-6.795665E-2,3.8335156E-2,-5.094424E-2,3.8157467E-2,-8.3950525E-3,-1.9451832E-2,4.888643E-2],"split_indices":[781,236,880,382,0,881,928,733,827,243,0,0,0,672,0,922,0,654,0,849,775,701,0,0,0,0,0,0,0,0,0],"split_type":[0,0,0,0,0,0,0,0,0,0,0,0,0,0,0,0,0,0,0,0,0,0,0,0,0,0,0,0,0,0,0],"sum_hessian":[3.366866E2,3.2019778E2,1.648883E1,3.1695697E2,3.2408082E0,8.616253E0,7.8725786E0,2.964435E2,2.0513462E1,5.4309607E0,3.1852918E0,5.898956E0,1.9736228E0,2.9190497E2,4.538537E0,1.877134E1,1.7421225E0,3.955794E0,1.4751666E0,2.0909071E1,2.7099588E2,1.7050993E1,1.7203456E0,1.2371502E0,2.718644E0,1.8444164E1,2.4649072E0,8.782626E0,2.6221326E2,1.2221423E0,1.5828852E1],"tree_param":{"num_deleted":"0","num_feature":"929","num_nodes":"31","size_leaf_vector":"1"}},{"base_weights":[-1.2211617E-3,2.8172573E-2,-1.1836299E0,5.698411E-2,-7.6445717E-1,-1.4307421E0,5.811478E-3,8.97236E-2,-7.147125E-1,-9.5418537E-1,2.3884192E-2,-2.1122327E-2,-8.14236E-2,1.3078882E-1,-5.2096254E-1,-1.0942553E0,2.7848208E-1,1.3694978E-2,-1.1877044E0,-2.407183E-1,2.1240087E-1,-3.7656478E-3,-1.2357633E0,-1.3849456E0,2.5348676E-2,5.6237187E-2,-4.132676E-2,-1.3134726E0,-1.1276267E-2,-5.4891612E-3,-5.455128E-2,-2.6527062E-2,1.3068265E-2,1.1644657E-2,-5.8728516E-2,-7.501262E-2,6.912451E-3,-5.8644805E-3,-8.186572E-2,-7.676437E-2,-3.0213652E-2],"categories":[],"categories_nodes":[],"categories_segments":[],"categories_sizes":[],"default_left":[0,0,0,0,0,0,0,0,0,0,0,0,0,0,0,0,0,0,0,0,0,0,0,0,0,0,0,0,0,0,0,0,0,0,0,0,0,0,0,0,0],"id":7,"left_children":[1,3,5,7,9,11,-1,13,15,17,-1,-1,-1,19,21,23,25,-1,27,29,31,33,35,37,-1,-1,-1,39,-1,-1,-1,-1,-1,-1,-1,-1,-1,-1,-1,-1,-1],"loss_changes":[1.1762982E1,7.5861607E0,2.803277E0,8.139505E0,3.202238E0,7.023163E-1,0E0,7.7798004E0,5.2504306E0,3.3202314E0,0E0,0E0,0E0,8.811382E0,7.232438E0,5.214942E0,5.067253E0,0E0,7.882986E-1,5.726285E0,8.775578E0,3.6985393E0,3.192831E0,2.518816E0,0E0,0E0,0E0,2.865162E-1,0E0,0E0,0E0,0E0,0E0,0E0,0E0,0E0,0E0,0E0,0E0,0E0,0E0],"parents":[2147483647,0,0,1,1,2,2,3,3,4,4,5,5,7,7,8,8,9,9,13,13,14,14,15,15,16,16,18,18,19,19,20,20,21,21,22,22,23,23,27,27],"right_children":[2,4,6,8,10,12,-1,14,16,18,-1,-1,-1,20,22,24,26,-1,28,30,32,34,36,38,-1,-1,-1,40,-1,-1,-1,-1,-1,-1,-1,-1,-1,-1,-1,-1,-1],"split_conditions":[1E0,1E0,1E0,1E0,1E0,0E0,5.811478E-3,1E0,1E0,0E0,2.3884192E-2,-2.1122327E-2,-8.14236E-2,1E0,1E0,1E0,2E0,1.3694978E-2,1E0,3E0,0E0,1E0,1E0,0E0,2.5348676E-2,5.6237187E-2,-4.132676E-2,1E0,-1.1276267E-2,-5.4891612E-3,-5.455128E-2,-2.6527062E-2,1.3068265E-2,1.1644657E-2,-5.8728516E-2,-7.501262E-2,6.912451E-3,-5.8644805E-3,-8.186572E-2,-7.676437E-2,-3.0213652E-2],"split_indices":[771,796,699,775,919,423,0,698,875,542,0,0,0,882,905,918,828,0,511,841,172,760,926,716,0,0,0,913,0,0,0,0,0,0,0,0,0,0,0,0,0],"split_type":[0,0,0,0,0,0,0,0,0,0,0,0,0,0,0,0,0,0,0,0,0,0,0,0,0,0,0,0,0,0,0,0,0,0,0,0,0,0,0,0,0],"sum_hessian":[3.3649097E2,3.2928146E2,7.2095E0,3.186277E2,1.0653787E1,5.9732537E0,1.2362463E0,3.0650772E2,1.2119963E1,9.443223E0,1.210563E0,1.4935565E0,4.4796968E0,2.8793176E2,1.8575962E1,8.695341E0,3.4246218E0,1.4811075E0,7.962116E0,5.150873E1,2.3642302E2,1.1360961E1,7.215E0,7.4736357E0,1.2217056E0,1.929268E0,1.4953537E0,6.718789E0,1.2433265E0,4.561395E1,5.894781E0,1.4010165E1,2.2241286E2,1.011705E1,1.2439111E0,5.973299E0,1.2417011E0,1.4840355E0,5.9896E0,4.2307353E0,2.488054E0],"tree_param":{"num_deleted":"0","num_feature":"929","num_nodes":"41","size_leaf_vector":"1"}},{"base_weights":[-2.3735622E-3,-3.6642335E-2,6.29978E-1,-1.8087467E-2,-7.1212195E-2,1.4708571E-1,1.084465E0,-6.0739994E-2,5.7713115E-1,-4.6350515E-1,5.288411E-2,6.50839E-2,3.6796644E-1,-8.287865E-2,5.6738522E-2,7.279596E-1,-4.0973085E-1,-9.340499E-1,3.359894E-2,2.5925E-2,2.5469994E-3,7.7682835E-1,-1.1351719E-1,9.1478723E-1,-1.5976994E-1,2.6258675E-2,-5.7811398E-2,5.377202E-3,-6.537297E-2,-2.4747962E-2,5.7053667E-2,2.3094263E-2,-7.98429E-3,-1.1064213E-2,5.21626E-2,4.3309893E-2,-4.298269E-2],"categories":[],"categories_nodes":[],"categories_segments":[],"categories_sizes":[],"default_left":[0,0,0,0,0,0,0,0,0,0,0,0,0,0,0,0,0,0,0,0,0,0,0,0,0,0,0,0,0,0,0,0,0,0,0,0,0],"id":8,"left_children":[1,3,5,7,-1,9,11,13,15,17,-1,-1,19,21,-1,23,25,27,-1,-1,-1,29,31,33,35,-1,-1,-1,-1,-1,-1,-1,-1,-1,-1,-1,-1],"loss_changes":[7.3291526E0,8.232921E0,3.656361E0,8.096779E0,0E0,5.8205857E0,8.9058876E-1,7.9605002E0,3.4729576E0,4.065384E0,0E0,0E0,1.3781527E-1,7.7991495E0,0E0,3.274314E0,3.0271833E0,2.0726433E0,0E0,0E0,0E0,5.290526E0,7.6062527E0,2.5266457E0,3.7106378E0,0E0,0E0,0E0,0E0,0E0,0E0,0E0,0E0,0E0,0E0,0E0,0E0],"parents":[2147483647,0,0,1,1,2,2,3,3,5,5,6,6,7,7,8,8,9,9,12,12,13,13,15,15,16,16,17,17,21,21,22,22,23,23,24,24],"right_children":[2,4,6,8,-1,10,12,14,16,18,-1,-1,20,22,-1,24,26,28,-1,-1,-1,30,32,34,36,-1,-1,-1,-1,-1,-1,-1,-1,-1,-1,-1,-1],"split_conditions":[1E0,1E0,2E0,1E0,-7.1212195E-2,3E0,1E0,1E0,3E0,1E0,5.288411E-2,6.50839E-2,1E0,0E0,5.6738522E-2,2E0,1E0,0E0,3.359894E-2,2.5925E-2,2.5469994E-3,0E0,0E0,0E0,0E0,2.6258675E-2,-5.7811398E-2,5.377202E-3,-6.537297E-2,-2.4747962E-2,5.7053667E-2,2.3094263E-2,-7.98429E-3,-1.1064213E-2,5.21626E-2,4.3309893E-2,-4.298269E-2],"split_indices":[781,236,880,382,0,881,888,733,922,243,0,0,910,775,0,903,846,654,0,0,0,610,672,268,685,0,0,0,0,0,0,0,0,0,0,0,0],"split_type":[0,0,0,0,0,0,0,0,0,0,0,0,0,0,0,0,0,0,0,0,0,0,0,0,0,0,0,0,0,0,0,0,0,0,0,0,0],"sum_hessian":[3.3615268E2,3.1976578E2,1.6386885E1,3.16546E2,3.2197857E0,8.586918E0,7.799966E0,2.9621744E2,2.032857E1,5.4341164E0,3.1528022E0,5.358706E0,2.4412599E0,2.917455E2,4.4719152E0,1.7861094E1,2.467476E0,3.967417E0,1.4666991E0,1.2243785E0,1.2168814E0,9.2014475E0,2.8254407E2,1.4730498E1,3.1305952E0,1.2271235E0,1.2403524E0,1.2348642E0,2.7325528E0,1.9687059E0,7.2327414E0,2.0317783E1,2.622263E2,1.423075E0,1.3307423E1,1.1731826E0,1.9574127E0],"tree_param":{"num_deleted":"0","num_feature":"929","num_nodes":"37","size_leaf_vector":"1"}},{"base_weights":[-1.735356E-3,2.6271384E-2,-1.128235E0,5.3792942E-2,-7.324878E-1,6.7171953E-3,-1.3720835E0,8.488326E-2,-6.789012E-1,-9.145424E-1,2.3010818E-2,-2.270984E-2,-7.6990634E-2,1.2423222E-1,-4.994639E-1,-1.0415072E0,2.7455756E-1,-1.1411841E0,1.35776475E-2,1.4218001E-1,-1.0491998E0,-8.608803E-3,-1.175569E0,-1.3203647E0,2.4753347E-2,5.472517E-2,-3.9560065E-2,-7.243203E-2,-2.2486155E-3,4.2145807E-2,5.637905E-3,-7.387898E-2,-5.697686E-3,-2.1118699E-2,3.2464042E-2,-7.146283E-2,6.941826E-3,-1.2727982E-2,-7.3452584E-2],"categories":[],"categories_nodes":[],"categories_segments":[],"categories_sizes":[],"default_left":[0,0,0,0,0,0,0,0,0,0,0,0,0,0,0,0,0,0,0,0,0,0,0,0,0,0,0,0,0,0,0,0,0,0,0,0,0,0,0],"id":9,"left_children":[1,3,5,7,9,-1,11,13,15,17,-1,-1,-1,19,21,23,25,27,-1,29,31,33,35,37,-1,-1,-1,-1,-1,-1,-1,-1,-1,-1,-1,-1,-1,-1,-1],"loss_changes":[1.0658488E1,6.9242363E0,2.7074938E0,7.326388E0,2.9415407E0,0E0,3.718357E-1,7.120801E0,4.8149714E0,3.107232E0,0E0,0E0,0E0,6.223503E0,6.4836235E0,4.809621E0,4.711584E0,2.94421E0,0E0,5.7799363E0,1.6202211E0,3.6344368E0,2.9404116E0,9.7019863E-1,0E0,0E0,0E0,0E0,0E0,0E0,0E0,0E0,0E0,0E0,0E0,0E0,0E0,0E0,0E0],"parents":[2147483647,0,0,1,1,2,2,3,3,4,4,6,6,7,7,8,8,9,9,13,13,14,14,15,15,16,16,17,17,19,19,20,20,21,21,22,22,23,23],"right_children":[2,4,6,8,10,-1,12,14,16,18,-1,-1,-1,20,22,24,26,28,-1,30,32,34,36,38,-1,-1,-1,-1,-1,-1,-1,-1,-1,-1,-1,-1,-1,-1,-1],"split_conditions":[1E0,1E0,0E0,1E0,1E0,6.7171953E-3,0E0,1E0,1E0,1E0,2.3010818E-2,-2.270984E-2,-7.6990634E-2,1E0,1E0,1E0,2E0,1E0,1.35776475E-2,0E0,1E0,1E0,1E0,0E0,2.4753347E-2,5.472517E-2,-3.9560065E-2,-7.243203E-2,-2.2486155E-3,4.2145807E-2,5.637905E-3,-7.387898E-2,-5.697686E-3,-2.1118699E-2,3.2464042E-2,-7.146283E-2,6.941826E-3,-1.2727982E-2,-7.3452584E-2],"split_indices":[771,796,730,775,919,0,773,698,875,840,0,0,0,613,905,918,828,865,0,660,851,891,926,423,0,0,0,0,0,0,0,0,0,0,0,0,0,0,0],"split_type":[0,0,0,0,0,0,0,0,0,0,0,0,0,0,0,0,0,0,0,0,0,0,0,0,0,0,0,0,0,0,0,0,0,0,0,0,0,0,0],"sum_hessian":[3.3589343E2,3.2869812E2,7.195328E0,3.1808954E2,1.0608575E1,1.2374147E0,5.9579134E0,3.0598965E2,1.209987E1,9.406053E0,1.2025222E0,1.493384E0,4.4645295E0,2.8742252E2,1.8567152E1,8.699175E0,3.400695E0,7.9288545E0,1.4771979E0,2.8395816E2,3.4643428E0,1.1344055E1,7.2230964E0,7.4820433E0,1.2171319E0,1.9067546E0,1.4939405E0,5.9410577E0,1.9877968E0,1.0328034E1,2.7363013E2,1.9783137E0,1.4860293E0,7.183892E0,4.1601634E0,5.9812946E0,1.2418019E0,1.2480354E0,6.234008E0],"tree_param":{"num_deleted":"0","num_feature":"929","num_nodes":"39","size_leaf_vector":"1"}},{"base_weights":[-2.4263847E-3,-3.511345E-2,6.0369474E-1,-1.7387427E-2,-6.845675E-2,1.3897303E-1,1.0431914E0,3.823683E-1,-7.829071E-2,-4.4813907E-1,5.109021E-2,6.411102E-2,7.153661E-3,6.334771E-1,-5.695574E-1,-1.2032174E-1,5.4405403E-1,-9.010758E-1,3.2619677E-2,7.7724016E-1,-4.918708E-2,-1.0720674E0,5.3296186E-2,-8.572173E-2,-1.0050273E0,7.4888426E-1,-5.158717E-2,5.2232123E-3,-6.303313E-2,-2.5125107E-2,4.697865E-2,-6.997033E-2,1.6067902E-3,-5.286072E-3,5.8747496E-2,-7.0171274E-2,6.4102034E-3,5.0786413E-2,1.6170357E-3],"categories":[],"categories_nodes":[],"categories_segments":[],"categories_sizes":[],"default_left":[0,0,0,0,0,0,0,0,0,0,0,0,0,0,0,0,0,0,0,0,0,0,0,0,0,0,0,0,0,0,0,0,0,0,0,0,0,0,0],"id":10,"left_children":[1,3,5,7,-1,9,11,13,15,17,-1,-1,-1,19,21,23,25,27,-1,29,-1,31,-1,33,35,37,-1,-1,-1,-1,-1,-1,-1,-1,-1,-1,-1,-1,-1],"loss_changes":[6.6880126E0,7.5485277E0,3.382966E0,7.7487016E0,0E0,5.4075418E0,1.6935205E0,1.0420755E1,7.283797E0,3.793212E0,0E0,0E0,0E0,8.617011E0,8.794962E0,7.851678E0,6.466019E0,1.9307146E0,0E0,7.031805E0,0E0,2.7996244E0,0E0,6.4438186E0,4.544177E0,3.0626469E0,0E0,0E0,0E0,0E0,0E0,0E0,0E0,0E0,0E0,0E0,0E0,0E0,0E0],"parents":[2147483647,0,0,1,1,2,2,3,3,5,5,6,6,7,7,8,8,9,9,13,13,14,14,15,15,16,16,17,17,19,19,21,21,23,23,24,24,25,25],"right_children":[2,4,6,8,-1,10,12,14,16,18,-1,-1,-1,20,22,24,26,28,-1,30,-1,32,-1,34,36,38,-1,-1,-1,-1,-1,-1,-1,-1,-1,-1,-1,-1,-1],"split_conditions":[1E0,1E0,2E0,0E0,-6.845675E-2,3E0,1E0,2E0,1E0,1E0,5.109021E-2,6.411102E-2,7.153661E-3,1E0,1E0,1E0,1E0,0E0,3.2619677E-2,0E0,-4.918708E-2,1E0,5.3296186E-2,1E0,1E0,1E0,-5.158717E-2,5.2232123E-3,-6.303313E-2,-2.5125107E-2,4.697865E-2,-6.997033E-2,1.6067902E-3,-5.286072E-3,5.8747496E-2,-7.0171274E-2,6.4102034E-3,5.0786413E-2,1.6170357E-3],"split_indices":[781,236,880,199,0,881,928,831,918,243,0,0,0,728,645,775,835,654,0,647,0,281,0,733,875,685,0,0,0,0,0,0,0,0,0,0,0,0,0],"split_type":[0,0,0,0,0,0,0,0,0,0,0,0,0,0,0,0,0,0,0,0,0,0,0,0,0,0,0,0,0,0,0,0,0,0,0,0,0,0,0],"sum_hessian":[3.3549844E2,3.1922525E2,1.62732E1,3.1603885E2,3.186383E0,8.549358E0,7.7238407E0,4.1085354E1,2.7495352E2,5.4303675E0,3.118991E0,5.767708E0,1.9561329E0,3.2774334E1,8.31102E0,2.5831448E2,1.6639015E1,3.9754586E0,1.4549086E0,3.0575695E1,2.1986372E0,6.6211367E0,1.6898837E0,2.4964789E2,8.666605E0,1.518938E1,1.4496354E0,1.2340574E0,2.7414012E0,3.2059844E0,2.736971E1,4.900921E0,1.7202158E0,2.4665108E2,2.996815E0,6.235891E0,2.430714E0,1.0763475E1,4.425904E0],"tree_param":{"num_deleted":"0","num_feature":"929","num_nodes":"39","size_leaf_vector":"1"}},{"base_weights":[-2.336554E-3,2.4552481E-2,-1.0865985E0,5.063639E-2,-6.967848E-1,6.216091E-3,-1.3201789E0,-1.0233085E-2,3.9134082E-1,-8.8747954E-1,7.877426E-3,-2.1717777E-2,-7.419522E-2,3.7094053E-2,-5.365586E-1,1.5216489E-1,9.1614807E-1,-1.1925166E0,4.1907565E-3,-1.0133358E0,7.452715E-2,-1.0393591E0,2.1530863E-2,-5.853967E-2,2.6837835E-1,1.1886886E0,5.2792136E-2,-7.2977744E-2,-1.4836122E-2,-6.688787E-2,2.6284402E-2,5.521028E-3,-3.792278E-2,-7.005038E-2,2.58014E-2,-2.8070195E-2,5.000412E-2,1.9164039E-2,-4.461695E-2,2.4298256E-2,6.855913E-2,-2.1890512E-2,2.3928815E-2],"categories":[],"categories_nodes":[],"categories_segments":[],"categories_sizes":[],"default_left":[0,0,0,0,0,0,0,0,0,0,0,0,0,0,0,0,0,0,0,0,0,0,0,0,0,0,0,0,0,0,0,0,0,0,0,0,0,0,0,0,0,0,0],"id":11,"left_children":[1,3,5,7,9,-1,11,13,15,17,-1,-1,-1,19,21,23,25,27,-1,29,31,33,35,-1,37,39,41,-1,-1,-1,-1,-1,-1,-1,-1,-1,-1,-1,-1,-1,-1,-1,-1],"loss_changes":[9.828031E0,6.2260056E0,2.4714499E0,6.6087155E0,2.021556E0,0E0,3.5972595E-1,6.7747726E0,5.923168E0,2.9422817E0,0E0,0E0,0E0,9.895492E0,6.3184023E0,5.599617E0,3.448287E0,1.329011E0,0E0,5.0281076E0,7.321527E0,7.373724E0,7.186213E0,0E0,4.6651945E0,7.821436E-1,1.1759951E0,0E0,0E0,0E0,0E0,0E0,0E0,0E0,0E0,0E0,0E0,0E0,0E0,0E0,0E0,0E0,0E0],"parents":[2147483647,0,0,1,1,2,2,3,3,4,4,6,6,7,7,8,8,9,9,13,13,14,14,15,15,16,16,17,17,19,19,20,20,21,21,22,22,24,24,25,25,26,26],"right_children":[2,4,6,8,10,-1,12,14,16,18,-1,-1,-1,20,22,24,26,28,-1,30,32,34,36,-1,38,40,42,-1,-1,-1,-1,-1,-1,-1,-1,-1,-1,-1,-1,-1,-1,-1,-1],"split_conditions":[1E0,1E0,0E0,1E0,1E0,6.216091E-3,0E0,1E0,1E0,1E0,7.877426E-3,-2.1717777E-2,-7.419522E-2,0E0,2E0,0E0,1E0,1E0,4.1907565E-3,1E0,1E0,1E0,2E0,-5.853967E-2,1E0,0E0,2E0,-7.2977744E-2,-1.4836122E-2,-6.688787E-2,2.6284402E-2,5.521028E-3,-3.792278E-2,-7.005038E-2,2.58014E-2,-2.8070195E-2,5.000412E-2,1.9164039E-2,-4.461695E-2,2.4298256E-2,6.855913E-2,-2.1890512E-2,2.3928815E-2],"split_indices":[771,796,617,213,840,0,281,917,899,865,0,0,0,738,827,672,926,905,0,618,775,821,895,0,45,685,831,0,0,0,0,0,0,0,0,0,0,0,0,0,0,0,0],"split_type":[0,0,0,0,0,0,0,0,0,0,0,0,0,0,0,0,0,0,0,0,0,0,0,0,0,0,0,0,0,0,0,0,0,0,0,0,0,0,0,0,0,0,0],"sum_hessian":[3.351836E2,3.280261E2,7.1574917E0,3.1747583E2,1.0550278E1,1.2330263E0,5.924465E0,2.7017667E2,4.7299175E1,8.593366E0,1.9569128E0,1.4940395E0,4.4304256E0,2.4873955E2,2.143711E1,3.3377594E1,1.3921579E1,6.3662667E0,2.2270987E0,7.6619854E0,2.4107756E2,1.0823514E1,1.0613597E1,1.9624797E0,3.1415115E1,1.0294904E1,3.6266756E0,4.4194703E0,1.9467965E0,6.4360585E0,1.2259264E0,2.3195021E2,9.127343E0,8.86219E0,1.9613239E0,6.918472E0,3.6951246E0,2.9194832E1,2.2202823E0,2.8775039E0,7.4174E0,1.6719526E0,1.9547229E0],"tree_param":{"num_deleted":"0","num_feature":"929","num_nodes":"43","size_leaf_vector":"1"}},{"base_weights":[-2.947332E-3,2.2884268E-2,-1.0485398E0,7.2987914E-1,-7.683993E-3,6.704237E-3,-1.2798582E0,9.551058E-1,-4.361555E-2,-4.5864213E-2,5.356686E-1,-2.568608E-2,-7.1877E-2,1.2696753E0,2.634723E-1,-8.299789E-2,5.917213E-1,6.6020757E-1,-2.2080844E-2,1.0749447E-2,7.319481E-2,-3.2466E-1,5.1775355E-2,-1.2287407E-1,5.0361353E-1,-2.8460694E-2,7.426103E-1,8.8340056E-1,-3.424408E-2,1.0426494E-2,-3.8282726E-2,1.4955806E-2,-9.070064E-3,-3.9795212E-2,3.2300368E-2,6.0762227E-2,1.057139E-2,5.422905E-2,1.0446972E-2,4.684406E-2,-2.9447744E-2],"categories":[],"categories_nodes":[],"categories_segments":[],"categories_sizes":[],"default_left":[0,0,0,0,0,0,0,0,0,0,0,0,0,0,0,0,0,0,0,0,0,0,0,0,0,0,0,0,0,0,0,0,0,0,0,0,0,0,0,0,0],"id":12,"left_children":[1,3,5,7,9,-1,11,13,-1,15,17,-1,-1,19,21,23,25,27,-1,-1,-1,29,-1,31,33,-1,35,37,39,-1,-1,-1,-1,-1,-1,-1,-1,-1,-1,-1,-1],"loss_changes":[9.0941925E0,7.109331E0,2.392333E0,5.7528253E0,6.581462E0,0E0,9.319973E-2,2.3699179E0,0E0,7.0627675E0,2.8267832E0,0E0,0E0,1.3818712E0,2.6736665E0,6.6305285E0,3.3001866E0,2.9560328E0,0E0,0E0,0E0,1.0257326E0,0E0,6.56808E0,3.8578506E0,0E0,3.501628E0,1.7167912E0,3.5436182E0,0E0,0E0,0E0,0E0,0E0,0E0,0E0,0E0,0E0,0E0,0E0,0E0],"parents":[2147483647,0,0,1,1,2,2,3,3,4,4,6,6,7,7,9,9,10,10,13,13,14,14,15,15,16,16,17,17,21,21,23,23,24,24,26,26,27,27,28,28],"right_children":[2,4,6,8,10,-1,12,14,-1,16,18,-1,-1,20,22,24,26,28,-1,-1,-1,30,-1,32,34,-1,36,38,40,-1,-1,-1,-1,-1,-1,-1,-1,-1,-1,-1,-1],"split_conditions":[1E0,0E0,0E0,1E0,1E0,6.704237E-3,1E0,2E0,-4.361555E-2,1E0,2E0,-2.568608E-2,-7.1877E-2,0E0,1E0,1E0,0E0,1E0,-2.2080844E-2,1.0749447E-2,7.319481E-2,0E0,5.1775355E-2,0E0,0E0,-2.8460694E-2,1E0,1E0,1E0,1.0426494E-2,-3.8282726E-2,1.4955806E-2,-9.070064E-3,-3.9795212E-2,3.2300368E-2,6.0762227E-2,1.057139E-2,5.422905E-2,1.0446972E-2,4.684406E-2,-2.9447744E-2],"split_indices":[771,719,730,729,382,0,831,880,0,781,846,0,0,467,725,918,689,626,0,0,0,602,0,199,655,0,833,892,903,0,0,0,0,0,0,0,0,0,0,0,0],"split_type":[0,0,0,0,0,0,0,0,0,0,0,0,0,0,0,0,0,0,0,0,0,0,0,0,0,0,0,0,0,0,0,0,0,0,0,0,0,0,0,0,0],"sum_hessian":[3.3481726E2,3.276995E2,7.1177773E0,1.2633349E1,3.1506613E2,1.2332231E0,5.8845544E0,1.1430404E1,1.2029456E0,2.952361E2,1.9830019E1,1.7311742E0,4.15338E0,7.2824364E0,4.147968E0,2.7980954E2,1.5426588E1,1.7876411E1,1.9536066E0,1.4601657E0,5.8222704E0,2.68331E0,1.4646577E0,2.6273978E2,1.7069769E1,1.4555128E0,1.3971075E1,1.3322536E1,4.553875E0,1.4533076E0,1.2300025E0,3.150112E1,2.3123865E2,1.2324744E0,1.5837295E1,6.7115116E0,7.2595634E0,9.793291E0,3.529245E0,1.4050744E0,3.1488006E0],"tree_param":{"num_deleted":"0","num_feature":"929","num_nodes":"41","size_leaf_vector":"1"}},{"base_weights":[-2.545508E-3,-3.1469412E-2,6.242391E-1,-6.419687E-2,5.570603E-1,-4.969039E-1,9.399937E-1,-9.973697E-2,5.624029E-1,1.1544944E-1,9.799794E-1,-7.071917E-2,3.1231923E-2,6.9525E-2,4.117672E-1,-1.0242809E0,-7.2905846E-2,-2.6259286E-2,7.0425856E-1,-4.4964433E-1,4.8869714E-2,6.1486464E-2,3.7038946E-3,-3.3654955E-1,5.069409E-2,-1.2320802E0,3.8561095E-3,-5.4324854E-2,-6.5634824E-2,-8.322129E-3,9.98752E-1,-8.8507515E-1,3.1149525E-2,-3.312568E-2,6.528693E-3,-8.066654E-2,-8.531117E-3,-3.8504866E-3,5.4091662E-2,3.2009434E-2,-3.751712E-2,6.395081E-2,-8.076288E-3,-6.782224E-2,-5.62676E-3],"categories":[],"categories_nodes":[],"categories_segments":[],"categories_sizes":[],"default_left":[0,0,0,0,0,0,0,0,0,0,0,0,0,0,0,0,0,0,0,0,0,0,0,0,0,0,0,0,0,0,0,0,0,0,0,0,0,0,0,0,0,0,0,0,0],"id":13,"left_children":[1,3,5,7,9,11,13,15,17,19,21,-1,-1,-1,23,25,27,-1,29,31,-1,-1,-1,33,-1,35,-1,37,-1,39,41,43,-1,-1,-1,-1,-1,-1,-1,-1,-1,-1,-1,-1,-1],"loss_changes":[6.1021433E0,6.231344E0,5.7232604E0,6.8619614E0,3.0709114E0,4.9139633E0,2.266595E0,7.120728E0,2.9238882E0,5.053792E0,1.8489742E0,0E0,0E0,0E0,3.4557552E0,1.9497414E0,6.447034E0,0E0,3.1710687E0,3.5438116E0,0E0,0E0,0E0,6.701102E-1,0E0,2.5075026E0,0E0,7.295331E0,0E0,3.07841E0,3.6771154E0,1.6572397E0,0E0,0E0,0E0,0E0,0E0,0E0,0E0,0E0,0E0,0E0,0E0,0E0,0E0],"parents":[2147483647,0,0,1,1,2,2,3,3,4,4,5,5,6,6,7,7,8,8,9,9,10,10,14,14,15,15,16,16,18,18,19,19,23,23,25,25,27,27,29,29,30,30,31,31],"right_children":[2,4,6,8,10,12,14,16,18,20,22,-1,-1,-1,24,26,28,-1,30,32,-1,-1,-1,34,-1,36,-1,38,-1,40,42,44,-1,-1,-1,-1,-1,-1,-1,-1,-1,-1,-1,-1,-1],"split_conditions":[1E0,1E0,0E0,1E0,2E0,1E0,1E0,0E0,0E0,3E0,1E0,-7.071917E-2,3.1231923E-2,6.9525E-2,1E0,1E0,1E0,-2.6259286E-2,1E0,1E0,4.8869714E-2,6.1486464E-2,3.7038946E-3,2E0,5.069409E-2,1E0,3.8561095E-3,1E0,-6.5634824E-2,1E0,1E0,0E0,3.1149525E-2,-3.312568E-2,6.528693E-3,-8.066654E-2,-8.531117E-3,-3.8504866E-3,5.4091662E-2,3.2009434E-2,-3.751712E-2,6.395081E-2,-8.076288E-3,-6.782224E-2,-5.62676E-3],"split_indices":[802,781,617,774,880,853,859,802,648,881,627,0,0,0,875,97,236,0,891,243,0,0,0,895,0,913,0,733,0,856,889,725,0,0,0,0,0,0,0,0,0,0,0,0,0],"split_type":[0,0,0,0,0,0,0,0,0,0,0,0,0,0,0,0,0,0,0,0,0,0,0,0,0,0,0,0,0,0,0,0,0,0,0,0,0,0,0,0,0,0,0,0,0],"sum_hessian":[3.3451102E2,3.2066333E2,1.3847693E1,3.0461496E2,1.6048365E1,2.916926E0,1.0930767E1,2.8906058E2,1.5554395E1,8.473424E0,7.574941E0,1.4608059E0,1.45612E0,5.0183735E0,5.9123936E0,7.1037936E0,2.819568E2,1.4829042E0,1.407149E1,5.4069486E0,3.0664752E0,5.657695E0,1.9172461E0,2.8328013E0,3.0795925E0,5.87645E0,1.2273434E0,2.7882184E2,3.134941E0,4.3990145E0,9.672477E0,3.9701462E0,1.4368024E0,1.422135E0,1.4106662E0,3.941012E0,1.9354383E0,2.7427774E2,4.544094E0,2.4206502E0,1.978364E0,7.708225E0,1.9642514E0,1.9962802E0,1.973866E0],"tree_param":{"num_deleted":"0","num_feature":"929","num_nodes":"45","size_leaf_vector":"1"}},{"base_weights":[-2.2377907E-3,2.25167E-2,-1.0090228E0,7.044816E-1,-6.8392716E-3,7.024546E-3,-1.2369267E0,9.2475384E-1,-4.2146944E-2,-8.307807E-1,1.7546475E-2,-2.0058442E-2,-6.9766946E-2,1.0823919E0,-7.3063574E-3,-1.2183259E0,4.6449304E-2,-4.501552E-1,6.0098767E-2,-8.73787E-3,1.2969875E0,-1.4461378E0,1.1758036E-3,-7.435807E-2,-2.8846082E-1,2.108842E-2,5.7387567E-1,7.231115E-2,3.0229095E-2,-8.31816E-2,-2.0407936E-2,-2.224255E-2,3.441418E-2,-3.8473915E-2,2.541852E-3,3.5219487E-2,-2.0714577E-2],"categories":[],"categories_nodes":[],"categories_segments":[],"categories_sizes":[],"default_left":[0,0,0,0,0,0,0,0,0,0,0,0,0,0,0,0,0,0,0,0,0,0,0,0,0,0,0,0,0,0,0,0,0,0,0,0,0],"id":14,"left_children":[1,3,5,7,9,-1,11,13,-1,15,17,-1,-1,19,-1,21,-1,23,25,-1,27,29,-1,-1,31,33,35,-1,-1,-1,-1,-1,-1,-1,-1,-1,-1],"loss_changes":[8.376273E0,6.573625E0,2.2867384E0,5.3983765E0,6.3550563E0,0E0,3.4487152E-1,2.2411594E0,0E0,7.332338E0,6.146329E0,0E0,0E0,3.1604471E0,0E0,2.2643204E0,0E0,3.8902907E0,5.6542344E0,0E0,9.776974E-2,8.2845783E-1,0E0,0E0,3.8997455E0,6.243269E0,2.8600092E0,0E0,0E0,0E0,0E0,0E0,0E0,0E0,0E0,0E0,0E0],"parents":[2147483647,0,0,1,1,2,2,3,3,4,4,6,6,7,7,9,9,10,10,13,13,15,15,17,17,18,18,20,20,21,21,24,24,25,25,26,26],"right_children":[2,4,6,8,10,-1,12,14,-1,16,18,-1,-1,20,-1,22,-1,24,26,-1,28,30,-1,-1,32,34,36,-1,-1,-1,-1,-1,-1,-1,-1,-1,-1],"split_conditions":[1E0,0E0,0E0,1E0,0E0,7.024546E-3,0E0,2E0,-4.2146944E-2,1E0,0E0,-2.0058442E-2,-6.9766946E-2,0E0,-7.3063574E-3,1E0,4.6449304E-2,0E0,1E0,-8.73787E-3,3E0,1E0,1.1758036E-3,-7.435807E-2,2E0,0E0,2E0,7.231115E-2,3.0229095E-2,-8.31816E-2,-2.0407936E-2,-2.224255E-2,3.441418E-2,-3.8473915E-2,2.541852E-3,3.5219487E-2,-2.0714577E-2],"split_indices":[771,719,617,729,732,0,281,846,0,666,657,0,0,61,0,628,0,515,382,0,827,775,0,0,900,802,846,0,0,0,0,0,0,0,0,0,0],"split_type":[0,0,0,0,0,0,0,0,0,0,0,0,0,0,0,0,0,0,0,0,0,0,0,0,0,0,0,0,0,0,0,0,0,0,0,0,0],"sum_hessian":[3.341819E2,3.271165E2,7.065394E0,1.2550871E1,3.145656E2,1.2324826E0,5.8329115E0,1.1339154E1,1.2117163E0,8.091833E0,3.064738E2,1.4922851E0,4.3406262E0,9.874795E0,1.4643594E0,6.883574E0,1.2082592E0,2.4759354E1,2.8171442E2,1.466916E0,8.407879E0,5.6775374E0,1.2060368E0,2.2340705E0,2.2525284E1,2.6280133E2,1.8913084E1,6.0213866E0,2.3864925E0,4.195639E0,1.4818983E0,1.9885845E1,2.6394384E0,8.62869E0,2.5417264E2,1.6960207E1,1.9528766E0],"tree_param":{"num_deleted":"0","num_feature":"929","num_nodes":"37","size_leaf_vector":"1"}},{"base_weights":[-2.6420208E-3,-8.654136E-2,1.9729818E-1,-1.2267441E-1,6.73159E-1,3.1423888E-1,-1.066224E0,-1.5251355E-1,6.714753E-1,-2.1108696E-2,8.52859E-1,1.7109682E-1,8.435709E-1,-1.2997622E0,9.256712E-3,6.708538E-1,-1.8356264E-1,9.5376974E-1,-1.2979845E-2,1.0711085E0,-1.818082E-2,6.288875E-2,1.0869033E-1,1.0067825E0,-4.3721154E-2,-7.436981E-2,-1.0301998E-2,4.2435315E-2,6.411506E-2,-1.2449238E-1,-6.77943E-1,6.424078E-2,-1.4382389E-2,1.6141495E-3,6.1977573E-2,-5.9954114E-2,1.6359358E-1,-1.8845905E-2,1.2193087E0,-2.335388E-2,2.566669E-2,4.3655735E-2,-7.967373E-3,7.934775E-3,-4.7662165E-2,-3.71049E-2,1.1640037E-2,6.837335E-2,9.425021E-3],"categories":[],"categories_nodes":[],"categories_segments":[],"categories_sizes":[],"default_left":[0,0,0,0,0,0,0,0,0,0,0,0,0,0,0,0,0,0,0,0,0,0,0,0,0,0,0,0,0,0,0,0,0,0,0,0,0,0,0,0,0,0,0,0,0,0,0,0,0],"id":15,"left_children":[1,3,5,7,9,11,13,15,17,-1,19,21,23,25,-1,27,29,31,-1,33,-1,-1,35,37,-1,-1,-1,39,-1,41,43,-1,-1,-1,-1,-1,45,-1,47,-1,-1,-1,-1,-1,-1,-1,-1,-1,-1],"loss_changes":[5.6340694E0,6.5763593E0,1.500455E1,5.473752E0,2.5045042E0,6.79945E0,2.7649593E0,5.728911E0,2.4537153E0,0E0,2.9622445E0,4.840334E0,6.2787333E0,1.2129822E0,0E0,3.0899575E0,6.109403E0,3.1044197E0,0E0,1.4420528E0,0E0,0E0,5.2580867E0,5.7667465E0,0E0,0E0,0E0,1.4561689E0,0E0,6.7694416E0,5.3133545E0,0E0,0E0,0E0,0E0,0E0,4.4688015E0,0E0,2.1675339E0,0E0,0E0,0E0,0E0,0E0,0E0,0E0,0E0,0E0,0E0],"parents":[2147483647,0,0,1,1,2,2,3,3,4,4,5,5,6,6,7,7,8,8,10,10,11,11,12,12,13,13,15,15,16,16,17,17,19,19,22,22,23,23,27,27,29,29,30,30,36,36,38,38],"right_children":[2,4,6,8,10,12,14,16,18,-1,20,22,24,26,-1,28,30,32,-1,34,-1,-1,36,38,-1,-1,-1,40,-1,42,44,-1,-1,-1,-1,-1,46,-1,48,-1,-1,-1,-1,-1,-1,-1,-1,-1,-1],"split_conditions":[1E0,1E0,1E0,1E0,0E0,1E0,3E0,0E0,3E0,-2.1108696E-2,1E0,0E0,1E0,1E0,9.256712E-3,2E0,1E0,1E0,-1.2979845E-2,0E0,-1.818082E-2,6.288875E-2,0E0,0E0,-4.3721154E-2,-7.436981E-2,-1.0301998E-2,1E0,6.411506E-2,0E0,1E0,6.424078E-2,-1.4382389E-2,1.6141495E-3,6.1977573E-2,-5.9954114E-2,0E0,-1.8845905E-2,1E0,-2.335388E-2,2.566669E-2,4.3655735E-2,-7.967373E-3,7.934775E-3,-4.7662165E-2,-3.71049E-2,1.1640037E-2,6.837335E-2,9.425021E-3],"split_indices":[898,802,698,75,721,924,827,660,868,0,515,704,639,602,0,881,423,687,0,340,0,0,763,685,0,0,0,834,0,166,895,0,0,0,0,0,246,0,845,0,0,0,0,0,0,0,0,0,0],"split_type":[0,0,0,0,0,0,0,0,0,0,0,0,0,0,0,0,0,0,0,0,0,0,0,0,0,0,0,0,0,0,0,0,0,0,0,0,0,0,0,0,0,0,0,0,0,0,0,0,0],"sum_hessian":[3.338462E2,2.3556503E2,9.828114E1,2.2567018E2,9.894856E0,9.064329E1,7.6378603E0,2.1827667E2,7.393506E0,1.204386E0,8.690471E0,7.239063E1,1.8252655E1,6.404012E0,1.233848E0,7.1832514E0,2.1109341E2,5.6546717E0,1.7388344E0,7.4698024E0,1.2206683E0,2.891238E0,6.949939E1,1.7047134E1,1.2055216E0,5.1590166E0,1.244996E0,4.0698457E0,3.1134057E0,1.8968144E2,2.1411974E1,4.436612E0,1.2180594E0,1.2084818E0,6.2613206E0,1.9605275E0,6.7538864E1,2.1667163E0,1.4880418E1,1.9586729E0,2.111173E0,5.591588E0,1.8408986E2,5.406167E0,1.6005806E1,4.104306E0,6.343456E1,1.2724872E1,2.1555457E0],"tree_param":{"num_deleted":"0","num_feature":"929","num_nodes":"49","size_leaf_vector":"1"}},{"base_weights":[-2.3372285E-3,2.1482637E-2,-9.776564E-1,6.7323023E-1,-6.3509163E-3,6.9347057E-3,-1.2006007E0,8.887474E-1,-4.0936995E-2,2.1522613E-2,-6.8291134E-1,-1.9617135E-2,-6.769374E-2,1.1887192E0,2.391282E-1,-8.4307635E-1,4.584917E-2,-9.0986234E-1,3.169076E-2,6.9243945E-2,8.070966E-3,-2.2603886E-2,4.0812813E-2,-1.0143688E-2,-1.2345484E0,6.3297585E-2,-1.0421281E0,7.877317E-3,-1.0575668E0,-2.379725E-2,2.5626978E-2,-7.156538E-2,-1.4370798E-2,3.9539016E-3,-5.5386003E-2,-7.323486E-2,-3.6824115E-3,-6.0578413E-2,-1.0507937E-2],"categories":[],"categories_nodes":[],"categories_segments":[],"categories_sizes":[],"default_left":[0,0,0,0,0,0,0,0,0,0,0,0,0,0,0,0,0,0,0,0,0,0,0,0,0,0,0,0,0,0,0,0,0,0,0,0,0,0,0],"id":16,"left_children":[1,3,5,7,9,-1,11,13,-1,15,17,-1,-1,19,21,23,25,27,-1,-1,-1,-1,-1,29,31,33,35,-1,37,-1,-1,-1,-1,-1,-1,-1,-1,-1,-1],"loss_changes":[7.791715E0,5.9450517E0,2.1565228E0,5.0435085E0,5.9562445E0,0E0,3.0730534E-1,2.0946074E0,0E0,6.4235196E0,4.311279E0,0E0,0E0,1.4086123E0,2.406726E0,2.713129E0,5.6890445E0,1.9120054E0,0E0,0E0,0E0,0E0,0E0,1.1401153E0,6.467943E-1,5.4923205E0,1.8289952E0,0E0,1.0314102E0,0E0,0E0,0E0,0E0,0E0,0E0,0E0,0E0,0E0,0E0],"parents":[2147483647,0,0,1,1,2,2,3,3,4,4,6,6,7,7,9,9,10,10,13,13,14,14,15,15,16,16,17,17,23,23,24,24,25,25,26,26,28,28],"right_children":[2,4,6,8,10,-1,12,14,-1,16,18,-1,-1,20,22,24,26,28,-1,-1,-1,-1,-1,30,32,34,36,-1,38,-1,-1,-1,-1,-1,-1,-1,-1,-1,-1],"split_conditions":[1E0,0E0,0E0,1E0,1E0,6.9347057E-3,0E0,2E0,-4.0936995E-2,0E0,1E0,-1.9617135E-2,-6.769374E-2,1E0,1E0,0E0,1E0,0E0,3.169076E-2,6.9243945E-2,8.070966E-3,-2.2603886E-2,4.0812813E-2,1E0,1E0,1E0,2E0,7.877317E-3,3E0,-2.379725E-2,2.5626978E-2,-7.156538E-2,-1.4370798E-2,3.9539016E-3,-5.5386003E-2,-7.323486E-2,-3.6824115E-3,-6.0578413E-2,-1.0507937E-2],"split_indices":[771,719,730,729,775,0,773,880,0,184,704,0,0,30,617,638,613,697,0,0,0,0,0,833,898,736,881,0,841,0,0,0,0,0,0,0,0,0,0],"split_type":[0,0,0,0,0,0,0,0,0,0,0,0,0,0,0,0,0,0,0,0,0,0,0,0,0,0,0,0,0,0,0,0,0,0,0,0,0,0,0],"sum_hessian":[3.3348352E2,3.264878E2,6.995719E0,1.2422239E1,3.1406555E2,1.2274413E0,5.7682776E0,1.1207599E1,1.2146404E0,3.0256827E2,1.1497285E1,1.486944E0,4.281334E0,7.0994473E0,4.108151E0,7.3591037E0,2.9520917E2,1.0070525E1,1.4267591E0,5.66891E0,1.4305376E0,1.9679198E0,2.1402314E0,2.6808941E0,4.67821E0,2.9147644E2,3.7327273E0,1.2160342E0,8.854491E0,1.4648652E0,1.2160288E0,3.4502473E0,1.2279623E0,2.8852084E2,2.9555893E0,2.2420876E0,1.4906399E0,7.1291585E0,1.725333E0],"tree_param":{"num_deleted":"0","num_feature":"929","num_nodes":"39","size_leaf_vector":"1"}},{"base_weights":[-3.022849E-3,1.9859511E-2,-9.466514E-1,6.491221E-1,-6.809073E-3,-1.1652449E0,6.882476E-3,8.6040807E-1,-3.9713122E-2,-7.9566956E-1,1.647845E-2,-1.349175E-2,-6.8067685E-2,1.0123808E0,-7.435523E-3,-1.1629665E0,4.4498198E-2,-4.2662524E-2,3.5170826E-1,-8.722943E-3,1.2209365E0,-1.0274864E-2,-1.3889927E0,-7.510814E-1,-1.4014645E-2,-3.9246343E-2,4.3283886E-1,2.4858681E-2,6.842223E-2,-7.985425E-2,-2.1960659E-2,-5.314043E-2,3.2540973E-2,1.7632729E-3,-2.9068543E-2,-2.6533917E-2,2.7308201E-2],"categories":[],"categories_nodes":[],"categories_segments":[],"categories_sizes":[],"default_left":[0,0,0,0,0,0,0,0,0,0,0,0,0,0,0,0,0,0,0,0,0,0,0,0,0,0,0,0,0,0,0,0,0,0,0,0,0],"id":17,"left_children":[1,3,5,7,9,11,-1,13,-1,15,17,-1,-1,19,-1,21,-1,23,25,-1,27,-1,29,31,33,-1,35,-1,-1,-1,-1,-1,-1,-1,-1,-1,-1],"loss_changes":[7.2341E0,5.495787E0,2.0404058E0,4.7439113E0,5.7982354E0,8.103409E-1,0E0,2.0053444E0,0E0,6.6381516E0,6.098793E0,0E0,0E0,2.846527E0,0E0,1.4165249E0,0E0,5.3013234E0,4.593303E0,0E0,2.9910946E-1,0E0,5.217066E-1,5.129094E0,7.0825324E0,0E0,5.0612106E0,0E0,0E0,0E0,0E0,0E0,0E0,0E0,0E0,0E0,0E0],"parents":[2147483647,0,0,1,1,2,2,3,3,4,4,5,5,7,7,9,9,10,10,13,13,15,15,17,17,18,18,20,20,22,22,23,23,24,24,26,26],"right_children":[2,4,6,8,10,12,-1,14,-1,16,18,-1,-1,20,-1,22,-1,24,26,-1,28,-1,30,32,34,-1,36,-1,-1,-1,-1,-1,-1,-1,-1,-1,-1],"split_conditions":[1E0,0E0,1E0,1E0,0E0,0E0,6.882476E-3,2E0,-3.9713122E-2,1E0,1E0,-1.349175E-2,-6.8067685E-2,0E0,-7.435523E-3,1E0,4.4498198E-2,0E0,0E0,-8.722943E-3,2E0,-1.0274864E-2,1E0,1E0,1E0,-3.9246343E-2,0E0,2.4858681E-2,6.842223E-2,-7.985425E-2,-2.1960659E-2,-5.314043E-2,3.2540973E-2,1.7632729E-3,-2.9068543E-2,-2.6533917E-2,2.7308201E-2],"split_indices":[771,719,699,729,732,423,0,846,0,666,213,0,0,61,0,828,0,738,61,0,881,0,859,773,917,0,309,0,0,0,0,0,0,0,0,0,0],"split_type":[0,0,0,0,0,0,0,0,0,0,0,0,0,0,0,0,0,0,0,0,0,0,0,0,0,0,0,0,0,0,0,0,0,0,0,0,0],"sum_hessian":[3.3315845E2,3.2622662E2,6.9318233E0,1.2314629E1,3.13912E2,5.706708E0,1.2251155E0,1.1094487E1,1.2201414E0,8.050073E0,3.058619E2,1.4521773E0,4.2545304E0,9.639544E0,1.4549435E0,6.8644013E0,1.1856709E0,2.6073584E2,4.5126072E1,1.4651608E0,8.174382E0,1.6755937E0,5.1888075E0,9.153982E0,2.5158186E2,2.428471E0,4.26976E1,2.123872E0,6.0505104E0,3.6972294E0,1.4915782E0,7.6866546E0,1.467327E0,2.3233893E2,1.9242931E1,4.1058555E0,3.8591743E1],"tree_param":{"num_deleted":"0","num_feature":"929","num_nodes":"37","size_leaf_vector":"1"}},{"base_weights":[-3.429892E-3,1.0790542E-2,-5.487148E-2,3.081608E-2,-7.6281714E-1,-2.2284568E-3,7.2579527E-1,-5.7967402E-2,-1.5273511E-1,-9.1562045E-1,2.1494241E-2,3.4091786E-2,1.0379893E0,3.37259E-2,-3.962907E-2,-1.1923393E0,2.7401557E-3,-4.616971E-1,6.616318E-2,3.302142E-2,-3.9255607E-1,-9.32914E-3,1.2648292E0,-7.6391235E-2,4.266163E-3,2.0823143E-2,-4.2377263E-2,1.1079415E-3,2.6446128E-2,-4.9363695E-2,2.5813375E-2,7.176454E-2,1.2539441E-2],"categories":[],"categories_nodes":[],"categories_segments":[],"categories_sizes":[],"default_left":[0,0,0,0,0,0,0,0,0,0,0,0,0,0,0,0,0,0,0,0,0,0,0,0,0,0,0,0,0,0,0,0,0],"id":18,"left_children":[1,3,-1,5,7,9,11,-1,13,15,17,19,21,-1,-1,23,-1,25,27,-1,29,-1,31,-1,-1,-1,-1,-1,-1,-1,-1,-1,-1],"loss_changes":[5.2049913E0,5.143862E0,0E0,7.4225974E0,1.8498721E0,6.7252965E0,3.1325684E0,0E0,2.891289E0,2.1752272E0,6.56202E0,1.7546769E0,3.03438E0,0E0,0E0,2.7697506E0,0E0,9.0723095E0,5.6468463E0,0E0,2.6478238E0,0E0,1.1314592E0,0E0,0E0,0E0,0E0,0E0,0E0,0E0,0E0,0E0,0E0],"parents":[2147483647,0,0,1,1,3,3,4,4,5,5,6,6,8,8,9,9,10,10,11,11,12,12,15,15,17,17,18,18,20,20,22,22],"right_children":[2,4,-1,6,8,10,12,-1,14,16,18,20,22,-1,-1,24,-1,26,28,-1,30,-1,32,-1,-1,-1,-1,-1,-1,-1,-1,-1,-1],"split_conditions":[1E0,1E0,-5.487148E-2,1E0,1E0,0E0,0E0,-5.7967402E-2,2E0,1E0,0E0,1E0,0E0,3.37259E-2,-3.962907E-2,1E0,2.7401557E-3,1E0,1E0,3.302142E-2,1E0,-9.32914E-3,1E0,-7.6391235E-2,4.266163E-3,2.0823143E-2,-4.2377263E-2,1.1079415E-3,2.6446128E-2,-4.9363695E-2,2.5813375E-2,7.176454E-2,1.2539441E-2],"split_indices":[236,620,0,774,899,802,666,0,828,913,657,846,732,0,0,626,0,903,713,0,653,0,889,0,0,0,0,0,0,0,0,0,0],"split_type":[0,0,0,0,0,0,0,0,0,0,0,0,0,0,0,0,0,0,0,0,0,0,0,0,0,0,0,0,0,0,0,0,0],"sum_hessian":[3.3281113E2,3.29518E2,3.2931268E0,3.2213928E2,7.3787026E0,3.0846915E2,1.3670149E1,3.926383E0,3.4523199E0,6.8570294E0,3.0161212E2,4.596111E0,9.074038E0,1.4820279E0,1.970292E0,5.157636E0,1.699393E0,2.4733181E1,2.7687894E2,1.6402335E0,2.9558775E0,1.4459096E0,7.628128E0,3.929929E0,1.2277073E0,7.5257726E0,1.7207409E1,2.537933E2,2.3085629E1,1.7345189E0,1.2213587E0,6.17473E0,1.4533985E0],"tree_param":{"num_deleted":"0","num_feature":"929","num_nodes":"33","size_leaf_vector":"1"}},{"base_weights":[-3.5382218E-3,1.8368986E-2,-9.143099E-1,-7.0842123E-1,3.944093E-2,7.726244E-3,-1.1349887E0,-1.0453701E0,4.3549266E-2,5.2565795E-1,4.0243254E-3,-1.8665368E-2,-6.4099126E-2,-1.2366713E0,1.3363725E-3,7.3461187E-1,-4.513861E-2,-5.5961434E-2,3.538013E-1,-1.1663553E-2,-7.0377715E-2,9.740982E-1,-3.7968132E-1,2.3865882E-2,-3.3461496E-1,-7.1731055E-1,4.4681463E-1,5.631764E-2,-4.545208E-3,2.4604255E-2,-4.5310613E-2,-1.8923797E-2,5.7607605E-3,4.081468E-2,-2.0612072E-2,-6.4517994E-4,-5.1103402E-2,8.57067E-3,3.8061004E-2],"categories":[],"categories_nodes":[],"categories_segments":[],"categories_sizes":[],"default_left":[0,0,0,0,0,0,0,0,0,0,0,0,0,0,0,0,0,0,0,0,0,0,0,0,0,0,0,0,0,0,0,0,0,0,0,0,0,0,0],"id":19,"left_children":[1,3,5,7,9,-1,11,13,-1,15,17,-1,-1,19,-1,21,-1,23,25,-1,-1,27,29,31,33,35,37,-1,-1,-1,-1,-1,-1,-1,-1,-1,-1,-1,-1],"loss_changes":[6.672141E0,5.0313993E0,2.0280218E0,5.8374567E0,5.4816003E0,0E0,2.637577E-1,1.6911821E0,0E0,7.114287E0,6.268845E0,0E0,0E0,8.5162735E-1,0E0,5.5486565E0,0E0,5.6824083E0,4.6779137E0,0E0,0E0,2.7380009E0,2.3520312E0,7.3658514E0,5.417525E0,8.193983E-1,3.40736E0,0E0,0E0,0E0,0E0,0E0,0E0,0E0,0E0,0E0,0E0,0E0,0E0],"parents":[2147483647,0,0,1,1,2,2,3,3,4,4,6,6,7,7,9,9,10,10,13,13,15,15,17,17,18,18,21,21,22,22,23,23,24,24,25,25,26,26],"right_children":[2,4,6,8,10,-1,12,14,-1,16,18,-1,-1,20,-1,22,-1,24,26,-1,-1,28,30,32,34,36,38,-1,-1,-1,-1,-1,-1,-1,-1,-1,-1,-1,-1],"split_conditions":[1E0,0E0,0E0,1E0,0E0,7.726244E-3,0E0,1E0,4.3549266E-2,2E0,1E0,-1.8665368E-2,-6.4099126E-2,0E0,1.3363725E-3,2E0,-4.513861E-2,1E0,0E0,-1.1663553E-2,-7.0377715E-2,1E0,1E0,1E0,0E0,1E0,1E0,5.631764E-2,-4.545208E-3,2.4604255E-2,-4.5310613E-2,-1.8923797E-2,5.7607605E-3,4.081468E-2,-2.0612072E-2,-6.4517994E-4,-5.1103402E-2,8.57067E-3,3.8061004E-2],"split_indices":[771,732,730,666,672,0,773,628,0,849,213,0,0,626,0,910,0,638,671,0,0,647,855,868,286,887,891,0,0,0,0,0,0,0,0,0,0,0,0],"split_type":[0,0,0,0,0,0,0,0,0,0,0,0,0,0,0,0,0,0,0,0,0,0,0,0,0,0,0,0,0,0,0,0,0,0,0,0,0,0,0],"sum_hessian":[3.3256012E2,3.257056E2,6.8545136E0,8.258074E0,3.174475E2,1.2243371E0,5.6301765E0,7.0847464E0,1.1733274E0,2.0613457E1,2.9683408E2,1.4833713E0,4.1468053E0,5.8817263E0,1.2030199E0,1.8406616E1,2.20684E0,2.5409714E2,4.273693E1,1.2000862E0,4.68164E0,1.5254007E1,3.1526098E0,1.9822496E2,5.5872177E1,2.8783898E0,3.985854E1,1.3295635E1,1.9583722E0,1.2117541E0,1.9408557E0,3.6096638E1,1.6212833E2,2.929092E0,5.2943085E1,1.184021E0,1.6943688E0,2.2070892E1,1.7787647E1],"tree_param":{"num_deleted":"0","num_feature":"929","num_nodes":"39","size_leaf_vector":"1"}},{"base_weights":[-3.7164139E-3,-3.2298595E-2,5.3452796E-1,-1.7176744E-2,-6.047119E-2,7.452062E-1,-2.4602148E-1,-6.957066E-1,9.294495E-3,2.7367878E-1,6.0120624E-2,2.2097548E-2,-4.8598092E-2,-1.0108806E0,3.688182E-2,3.9824894E-1,-4.811052E-2,8.112115E-1,-5.723438E-1,-1.3384974E0,-1.5663588E-1,5.17802E-1,-9.819204E-1,-8.4934056E-2,4.814511E-1,5.9036065E-2,7.2550395E-4,-8.786255E-3,-3.752819E-2,-7.422188E-2,-2.3217311E-2,3.102884E-2,-4.294611E-2,3.348629E-2,-3.0634418E-2,-1.5756734E-2,-6.0305547E-2,-6.2139523E-3,2.383191E-2,3.3011403E-2,-3.6587518E-2],"categories":[],"categories_nodes":[],"categories_segments":[],"categories_sizes":[],"default_left":[0,0,0,0,0,0,0,0,0,0,0,0,0,0,0,0,0,0,0,0,0,0,0,0,0,0,0,0,0,0,0,0,0,0,0,0,0,0,0,0,0],"id":20,"left_children":[1,3,5,7,-1,9,11,13,15,17,-1,-1,-1,19,-1,21,23,25,27,29,31,33,35,37,39,-1,-1,-1,-1,-1,-1,-1,-1,-1,-1,-1,-1,-1,-1,-1,-1],"loss_changes":[5.1428022E0,5.627479E0,2.9553814E0,5.6518054E0,0E0,2.5861492E0,2.5943923E0,6.082901E0,6.795403E0,4.080403E0,0E0,0E0,0E0,2.6188793E0,0E0,6.9664135E0,5.2152824E0,1.5360522E0,1.2792158E-1,2.257452E-1,2.6804025E0,6.708892E0,1.37923E-1,5.5597377E0,4.2574024E0,0E0,0E0,0E0,0E0,0E0,0E0,0E0,0E0,0E0,0E0,0E0,0E0,0E0,0E0,0E0,0E0],"parents":[2147483647,0,0,1,1,2,2,3,3,5,5,6,6,7,7,8,8,9,9,13,13,15,15,16,16,17,17,18,18,19,19,20,20,21,21,22,22,23,23,24,24],"right_children":[2,4,6,8,-1,10,12,14,16,18,-1,-1,-1,20,-1,22,24,26,28,30,32,34,36,38,40,-1,-1,-1,-1,-1,-1,-1,-1,-1,-1,-1,-1,-1,-1,-1,-1],"split_conditions":[1E0,1E0,1E0,0E0,-6.047119E-2,1E0,1E0,1E0,0E0,1E0,6.0120624E-2,2.2097548E-2,-4.8598092E-2,1E0,3.688182E-2,1E0,1E0,1E0,1E0,1E0,3E0,1E0,1E0,1E0,1E0,5.9036065E-2,7.2550395E-4,-8.786255E-3,-3.752819E-2,-7.422188E-2,-2.3217311E-2,3.102884E-2,-4.294611E-2,3.348629E-2,-3.0634418E-2,-1.5756734E-2,-6.0305547E-2,-6.2139523E-3,2.383191E-2,3.3011403E-2,-3.6587518E-2],"split_indices":[781,236,874,738,0,905,887,773,199,888,0,0,0,905,0,728,918,892,638,889,881,45,837,382,677,0,0,0,0,0,0,0,0,0,0,0,0,0,0,0,0],"split_type":[0,0,0,0,0,0,0,0,0,0,0,0,0,0,0,0,0,0,0,0,0,0,0,0,0,0,0,0,0,0,0,0,0,0,0,0,0,0,0,0,0],"sum_hessian":[3.3216898E2,3.1631198E2,1.5856999E1,3.1330176E2,3.0102158E0,1.2522367E1,3.3346336E0,1.0814523E1,3.0248724E2,6.951606E0,5.5707603E0,1.912943E0,1.4216905E0,9.106793E0,1.7077293E0,3.8138412E1,2.6434885E2,4.2759595E0,2.6756463E0,6.1726165E0,2.9341772E0,3.5673157E1,2.4652536E0,2.4794722E2,1.6401617E1,2.5918489E0,1.6841106E0,1.4452727E0,1.2303736E0,4.691259E0,1.4813573E0,1.4480184E0,1.4861586E0,3.1806358E1,3.8667994E0,1.2256349E0,1.2396187E0,2.3244061E2,1.5506606E1,1.4692353E1,1.7092636E0],"tree_param":{"num_deleted":"0","num_feature":"929","num_nodes":"41","size_leaf_vector":"1"}},{"base_weights":[-3.941771E-3,1.7138686E-2,-8.8834363E-1,4.0632464E-2,-6.3552713E-1,7.09821E-3,-1.1022027E0,2.564272E-2,6.4818576E-2,-8.06995E-1,2.2513455E-2,-6.334864E-2,-1.9227661E-2,8.280068E-1,3.8717857E-3,-1.0230342E0,1.4041628E-2,-2.7152834E-2,1.2069098E0,-3.19469E-2,5.06345E-1,-6.5295346E-2,-1.8458002E-3,6.59469E-2,1.6792346E-2,-3.3115558E-3,2.704425E-2,3.097629E-2,-1.8846652E-2],"categories":[],"categories_nodes":[],"categories_segments":[],"categories_sizes":[],"default_left":[0,0,0,0,0,0,0,0,0,0,0,0,0,0,0,0,0,0,0,0,0,0,0,0,0,0,0,0,0],"id":21,"left_children":[1,3,5,7,9,-1,11,13,-1,15,-1,-1,-1,17,19,21,-1,-1,23,25,27,-1,-1,-1,-1,-1,-1,-1,-1],"loss_changes":[6.2190175E0,5.0244412E0,1.8675995E0,5.907447E0,2.483379E0,0E0,2.8671598E-1,5.46263E0,0E0,2.6825867E0,0E0,0E0,0E0,4.94708E0,5.5170746E0,2.3838549E0,0E0,0E0,2.1892548E-1,5.6573863E0,2.2726197E0,0E0,0E0,0E0,0E0,0E0,0E0,0E0,0E0],"parents":[2147483647,0,0,1,1,2,2,3,3,4,4,6,6,7,7,9,9,13,13,14,14,15,15,18,18,19,19,20,20],"right_children":[2,4,6,8,10,-1,12,14,-1,16,-1,-1,-1,18,20,22,-1,-1,24,26,28,-1,-1,-1,-1,-1,-1,-1,-1],"split_conditions":[1E0,1E0,0E0,1E0,1E0,7.09821E-3,1E0,0E0,6.4818576E-2,1E0,2.2513455E-2,-6.334864E-2,-1.9227661E-2,0E0,1E0,1E0,1.4041628E-2,-2.7152834E-2,1E0,1E0,2E0,-6.5295346E-2,-1.8458002E-3,6.59469E-2,1.6792346E-2,-3.3115558E-3,2.704425E-2,3.097629E-2,-1.8846652E-2],"split_indices":[771,796,730,632,919,0,865,775,0,840,0,0,0,610,382,865,0,0,840,781,846,0,0,0,0,0,0,0,0],"split_type":[0,0,0,0,0,0,0,0,0,0,0,0,0,0,0,0,0,0,0,0,0,0,0,0,0,0,0,0,0],"sum_hessian":[3.317573E2,3.2499146E2,6.765822E0,3.146045E2,1.0386962E1,1.2207586E0,5.5450635E0,3.1190176E2,2.7027478E0,9.192122E0,1.1948391E0,3.8871405E0,1.6579229E0,7.261136E0,3.0464062E2,7.718762E0,1.4733604E0,1.4783779E0,5.782758E0,2.8524353E2,1.9397099E1,5.746158E0,1.9726039E0,4.6682043E0,1.1145536E0,2.699701E2,1.5273439E1,1.7458607E1,1.9384918E0],"tree_param":{"num_deleted":"0","num_feature":"929","num_nodes":"29","size_leaf_vector":"1"}},{"base_weights":[-3.5896357E-3,1.6699566E-2,-8.6200726E-1,3.134848E-2,-9.825555E-1,7.416726E-3,-1.0741915E0,5.1533416E-2,-7.2881097E-1,-6.9844805E-2,-2.3595653E-3,-1.52687235E-2,-6.186833E-2,2.0685408E-2,6.8966615E-1,5.84763E-4,-9.9630576E-1,6.999213E-1,-6.0391375E-3,8.6088896E-1,-1.9943146E-2,-1.3045624E0,6.6902237E-3,5.1158786E-2,-6.411689E-3,-1.2255533E-3,4.640997E-2,5.1063478E-2,-1.8751282E-2,-7.577884E-2,-1.8098379E-2],"categories":[],"categories_nodes":[],"categories_segments":[],"categories_sizes":[],"default_left":[0,0,0,0,0,0,0,0,0,0,0,0,0,0,0,0,0,0,0,0,0,0,0,0,0,0,0,0,0,0,0],"id":22,"left_children":[1,3,5,7,9,-1,11,13,15,-1,-1,-1,-1,17,19,-1,21,23,25,27,-1,29,-1,-1,-1,-1,-1,-1,-1,-1,-1],"loss_changes":[5.8028693E0,4.7978244E0,1.8085532E0,4.9770947E0,1.769588E0,0E0,4.349575E-1,6.1773243E0,1.6741834E0,0E0,0E0,0E0,0E0,5.4691257E0,3.0408201E0,0E0,2.326561E0,3.1844616E0,5.0386105E0,2.9245882E0,0E0,4.3529415E-1,0E0,0E0,0E0,0E0,0E0,0E0,0E0,0E0,0E0],"parents":[2147483647,0,0,1,1,2,2,3,3,4,4,6,6,7,7,8,8,13,13,14,14,16,16,17,17,18,18,19,19,21,21],"right_children":[2,4,6,8,10,-1,12,14,16,-1,-1,-1,-1,18,20,-1,22,24,26,28,-1,30,-1,-1,-1,-1,-1,-1,-1,-1,-1],"split_conditions":[1E0,1E0,0E0,1E0,2E0,7.416726E-3,0E0,1E0,2E0,-6.9844805E-2,-2.3595653E-3,-1.52687235E-2,-6.186833E-2,0E0,2E0,5.84763E-4,3E0,2E0,1E0,1E0,-1.9943146E-2,1E0,6.6902237E-3,5.1158786E-2,-6.411689E-3,-1.2255533E-3,4.640997E-2,5.1063478E-2,-1.8751282E-2,-7.577884E-2,-1.8098379E-2],"split_indices":[771,613,617,620,881,0,281,774,826,0,0,0,0,719,887,0,868,880,733,657,0,6,0,0,0,0,0,0,0,0,0],"split_type":[0,0,0,0,0,0,0,0,0,0,0,0,0,0,0,0,0,0,0,0,0,0,0,0,0,0,0,0,0,0,0],"sum_hessian":[3.313537E2,3.2466068E2,6.692999E0,3.2092462E2,3.7360744E0,1.2138788E0,5.4791203E0,3.1353143E2,7.393166E0,2.2472017E0,1.4888728E0,1.4620358E0,4.017084E0,3.0005872E2,1.3472737E1,2.215705E0,5.177461E0,1.0405309E1,2.896534E2,1.1822254E1,1.6504834E0,3.9465935E0,1.2308675E0,7.314677E0,3.0906317E0,2.8499225E2,4.6611533E0,1.0618056E1,1.2041976E0,2.7280092E0,1.2185843E0],"tree_param":{"num_deleted":"0","num_feature":"929","num_nodes":"31","size_leaf_vector":"1"}},{"base_weights":[-3.778565E-3,1.572522E-2,-8.37018E-1,3.9802276E-2,-5.7461363E-1,7.345311E-3,-1.0473146E0,6.391376E-2,-6.1076874E-1,-8.956938E-1,2.7365863E-1,-6.0631532E-2,-1.7600086E-2,-2.4322161E-1,1.2121148E-1,-1.9430555E-1,-5.665774E-2,3.1293002E-3,-1.1086633E0,5.086837E-2,-3.4370888E-2,-3.0379167E-1,5.082462E-2,2.1990408E-1,-1.3255906E-1,-5.3075094E-2,1.4476746E-1,-6.278102E-2,-8.643288E-3,-5.4615126E-3,-3.9823394E-2,1.5653728E-2,-8.521421E-3,4.8030026E-2,-1.04053775E-2,-1.7439794E-2,4.141959E-2],"categories":[],"categories_nodes":[],"categories_segments":[],"categories_sizes":[],"default_left":[0,0,0,0,0,0,0,0,0,0,0,0,0,0,0,0,0,0,0,0,0,0,0,0,0,0,0,0,0,0,0,0,0,0,0,0,0],"id":23,"left_children":[1,3,5,7,9,-1,11,13,15,17,19,-1,-1,21,23,25,-1,-1,27,-1,-1,29,-1,31,33,-1,35,-1,-1,-1,-1,-1,-1,-1,-1,-1,-1],"loss_changes":[5.4091787E0,4.6483083E0,1.7290459E0,4.9583297E0,3.736022E0,0E0,3.082509E-1,5.3670635E0,2.2386727E0,2.0146785E0,3.7623105E0,0E0,0E0,3.9727192E0,6.4478593E0,2.357712E0,0E0,0E0,8.6277866E-1,0E0,0E0,4.3785605E0,0E0,6.7776537E0,6.1779876E0,0E0,2.4040618E0,0E0,0E0,0E0,0E0,0E0,0E0,0E0,0E0,0E0,0E0],"parents":[2147483647,0,0,1,1,2,2,3,3,4,4,6,6,7,7,8,8,9,9,10,10,13,13,14,14,15,15,18,18,21,21,23,23,24,24,26,26],"right_children":[2,4,6,8,10,-1,12,14,16,18,20,-1,-1,22,24,26,-1,-1,28,-1,-1,30,-1,32,34,-1,36,-1,-1,-1,-1,-1,-1,-1,-1,-1,-1],"split_conditions":[1E0,1E0,0E0,1E0,1E0,7.345311E-3,1E0,1E0,1E0,0E0,2E0,-6.0631532E-2,-1.7600086E-2,1E0,1E0,1E0,-5.665774E-2,3.1293002E-3,3E0,5.086837E-2,-3.4370888E-2,1E0,5.082462E-2,1E0,0E0,-5.3075094E-2,1E0,-6.278102E-2,-8.643288E-3,-5.4615126E-3,-3.9823394E-2,1.5653728E-2,-8.521421E-3,4.8030026E-2,-1.04053775E-2,-1.7439794E-2,4.141959E-2],"split_indices":[771,775,730,796,875,0,865,868,872,199,828,0,0,110,638,885,0,0,881,0,0,913,0,681,371,0,905,0,0,0,0,0,0,0,0,0,0],"split_type":[0,0,0,0,0,0,0,0,0,0,0,0,0,0,0,0,0,0,0,0,0,0,0,0,0,0,0,0,0,0,0,0,0,0,0,0,0],"sum_hessian":[3.3103555E2,3.2442285E2,6.6126957E0,3.1260574E2,1.1817094E1,1.2175454E0,5.39515E0,3.0230353E2,1.0302227E1,8.531809E0,3.2852848E0,3.7577171E0,1.637433E0,4.7019268E1,2.5528426E2,6.495645E0,3.806582E0,1.6797438E0,6.8520656E0,1.819067E0,1.4662176E0,4.5586216E1,1.4330541E0,1.8389864E2,7.138562E1,1.2269807E0,5.2686644E0,5.6266885E0,1.2253771E0,3.3556293E1,1.202992E1,1.4862135E2,3.527728E1,3.8572714E0,6.752835E1,3.3440852E0,1.9245791E0],"tree_param":{"num_deleted":"0","num_feature":"929","num_nodes":"37","size_leaf_vector":"1"}},{"base_weights":[-4.067955E-3,1.4699539E-2,-8.1315625E-1,2.7786868E-2,-1.0556263E0,7.919744E-3,-1.0239741E0,8.233712E-1,3.252107E-3,-6.545494E-2,-1.3687943E-2,-1.4199207E-2,-5.9309352E-2,1.0432844E0,-1.9394865E-2,-8.934288E-2,1.8191029E-1,1.8482313E-3,1.2053125E0,-2.4527987E-3,-6.485358E-1,2.3073035E-1,-6.19636E-2,7.000849E-2,1.7389465E-2,-3.157582E-3,2.9082954E-2,-4.1368198E-2,3.7421897E-2,6.1842497E-3,3.729416E-2],"categories":[],"categories_nodes":[],"categories_segments":[],"categories_sizes":[],"default_left":[0,0,0,0,0,0,0,0,0,0,0,0,0,0,0,0,0,0,0,0,0,0,0,0,0,0,0,0,0,0,0],"id":24,"left_children":[1,3,5,7,9,-1,11,13,15,-1,-1,-1,-1,17,-1,19,21,-1,23,25,27,29,-1,-1,-1,-1,-1,-1,-1,-1,-1],"loss_changes":[5.046537E0,4.5821905E0,1.7053514E0,6.2840242E0,4.248104E-1,0E0,4.2234755E-1,2.970192E0,5.20148E0,0E0,0E0,0E0,0E0,1.3287239E0,0E0,1.0061835E1,7.7324533E0,0E0,7.199049E-1,6.428028E0,7.5768547E0,5.6761394E0,0E0,0E0,0E0,0E0,0E0,0E0,0E0,0E0,0E0],"parents":[2147483647,0,0,1,1,2,2,3,3,4,4,6,6,7,7,8,8,13,13,15,15,16,16,18,18,19,19,20,20,21,21],"right_children":[2,4,6,8,10,-1,12,14,16,-1,-1,-1,-1,18,-1,20,22,-1,24,26,28,30,-1,-1,-1,-1,-1,-1,-1,-1,-1],"split_conditions":[1E0,1E0,0E0,0E0,1E0,7.919744E-3,0E0,1E0,1E0,-6.545494E-2,-1.3687943E-2,-1.4199207E-2,-5.9309352E-2,0E0,-1.9394865E-2,1E0,2E0,1.8482313E-3,1E0,1E0,1E0,1E0,-6.19636E-2,7.000849E-2,1.7389465E-2,-3.157582E-3,2.9082954E-2,-4.1368198E-2,3.7421897E-2,6.1842497E-3,3.729416E-2],"split_indices":[771,736,617,371,856,0,281,281,899,0,0,0,0,661,0,542,821,0,840,713,689,628,0,0,0,0,0,0,0,0,0],"split_type":[0,0,0,0,0,0,0,0,0,0,0,0,0,0,0,0,0,0,0,0,0,0,0,0,0,0,0,0,0,0,0],"sum_hessian":[3.3055945E2,3.2402524E2,6.5342107E0,3.210734E2,2.951862E0,1.2093949E0,5.3248158E0,8.631213E0,3.1244217E2,1.7199506E0,1.2319117E0,1.4519477E0,3.8728678E0,7.4223285E0,1.2088846E0,2.0611618E2,1.06326E2,1.1996586E0,6.2226696E0,1.7926544E2,2.6850739E1,1.03604645E2,2.7213492E0,4.554852E0,1.6678177E0,1.6319833E2,1.6067108E1,2.4165085E1,2.6856542E0,8.680685E1,1.6797796E1],"tree_param":{"num_deleted":"0","num_feature":"929","num_nodes":"31","size_leaf_vector":"1"}},{"base_weights":[-4.068762E-3,-2.963265E-2,5.571094E-1,-7.655581E-1,-6.0512763E-3,-4.694558E-1,8.566296E-1,-1.3340887E0,4.288962E-2,2.7118241E-2,-5.228849E-1,-6.624811E-2,2.9871648E-2,6.5769285E-2,3.2984713E-1,-1.4783885E0,-1.6113184E-2,-5.510994E-2,3.2090914E-1,-6.969609E-1,4.766686E-2,-2.4007075E-2,8.0374676E-1,-2.6819387E-2,-8.255299E-2,-1.03096314E-1,4.990861E-1,-5.7695264E-1,4.174887E-1,-8.9388853E-1,3.6397836E-1,5.5085845E-2,2.2616084E-3,3.223628E-2,-6.878561E-3,3.8857248E-2,-1.5537641E-2,-5.48279E-2,1.0779577E-2,2.5555972E-2,-3.0674187E-2,-6.353726E-2,-2.2504108E-3,2.3598887E-3,2.576018E-2],"categories":[],"categories_nodes":[],"categories_segments":[],"categories_sizes":[],"default_left":[0,0,0,0,0,0,0,0,0,0,0,0,0,0,0,0,0,0,0,0,0,0,0,0,0,0,0,0,0,0,0,0,0,0,0,0,0,0,0,0,0,0,0,0,0],"id":25,"left_children":[1,3,5,7,9,11,13,15,-1,17,19,-1,-1,-1,21,23,-1,25,27,29,-1,-1,31,-1,-1,33,35,37,39,41,43,-1,-1,-1,-1,-1,-1,-1,-1,-1,-1,-1,-1,-1,-1],"loss_changes":[4.7684393E0,5.5097713E0,4.855141E0,1.0242422E1,5.309682E0,4.3668175E0,2.361043E0,6.466875E-1,0E0,7.052974E0,5.464313E0,0E0,0E0,0E0,2.9647076E0,1.6408348E-1,0E0,6.1252275E0,5.7759867E0,3.9368534E0,0E0,0E0,9.926343E-1,0E0,0E0,5.5289974E0,4.3783402E0,2.9622037E0,5.93281E0,4.699484E0,1.393686E-1,0E0,0E0,0E0,0E0,0E0,0E0,0E0,0E0,0E0,0E0,0E0,0E0,0E0,0E0],"parents":[2147483647,0,0,1,1,2,2,3,3,4,4,5,5,6,6,7,7,9,9,10,10,14,14,15,15,17,17,18,18,19,19,22,22,25,25,26,26,27,27,28,28,29,29,30,30],"right_children":[2,4,6,8,10,12,14,16,-1,18,20,-1,-1,-1,22,24,-1,26,28,30,-1,-1,32,-1,-1,34,36,38,40,42,44,-1,-1,-1,-1,-1,-1,-1,-1,-1,-1,-1,-1,-1,-1],"split_conditions":[1E0,0E0,0E0,1E0,1E0,1E0,1E0,1E0,4.288962E-2,1E0,1E0,-6.624811E-2,2.9871648E-2,6.5769285E-2,0E0,0E0,-1.6113184E-2,1E0,1E0,1E0,4.766686E-2,-2.4007075E-2,1E0,-2.6819387E-2,-8.255299E-2,0E0,2E0,1E0,1E0,2E0,1E0,5.5085845E-2,2.2616084E-3,3.223628E-2,-6.878561E-3,3.8857248E-2,-1.5537641E-2,-5.48279E-2,1.0779577E-2,2.5555972E-2,-3.0674187E-2,-6.353726E-2,-2.2504108E-3,2.3598887E-3,2.576018E-2],"split_indices":[802,481,617,243,672,853,859,693,0,865,761,0,0,0,799,689,0,30,868,610,0,0,861,0,0,219,826,909,679,826,719,0,0,0,0,0,0,0,0,0,0,0,0,0,0],"split_type":[0,0,0,0,0,0,0,0,0,0,0,0,0,0,0,0,0,0,0,0,0,0,0,0,0,0,0,0,0,0,0,0,0,0,0,0,0,0,0,0,0,0,0,0,0],"sum_hessian":[3.3023975E2,3.167574E2,1.3482357E1,8.85785E0,3.0789954E2,2.917084E0,1.0565273E1,6.6922684E0,2.1655815E0,2.9022116E2,1.767838E1,1.4846742E0,1.4324098E0,4.8470936E0,5.718179E0,5.453426E0,1.2388426E0,2.2739009E2,6.283106E1,1.628583E1,1.3925487E0,2.1057918E0,3.6123877E0,1.4808921E0,3.972534E0,2.1001907E2,1.7371025E1,5.6190567E0,5.7212E1,1.3868978E1,2.4168525E0,2.2686996E0,1.343688E0,8.475219E0,2.0154385E2,1.2961168E1,4.409857E0,3.1622438E0,2.4568126E0,5.2910973E1,4.301029E0,9.260745E0,4.6082325E0,1.2049253E0,1.2119272E0],"tree_param":{"num_deleted":"0","num_feature":"929","num_nodes":"45","size_leaf_vector":"1"}},{"base_weights":[-3.8640944E-3,1.4149524E-2,-7.900713E-1,-6.1432295E-2,1.9820204E-1,7.509784E-3,-9.974415E-1,6.8616104E-1,-9.012586E-2,3.077318E-1,-9.774068E-1,-5.7997983E-2,-1.6471352E-2,7.380812E-2,6.2225927E-2,-3.8015585E-2,-5.199815E-1,-9.354627E-1,3.6627835E-1,-1.2139919E0,1.08622825E-2,-3.680732E-1,4.0420115E-2,8.52901E-1,-6.958409E-2,3.3441308E-1,-7.993019E-1,3.8903747E-3,-6.876724E-2,4.246556E-1,-6.692228E-1,-6.867682E-2,-1.8211564E-2,4.9803145E-3,-3.833901E-2,1.5440031E-2,6.060737E-2,-1.912822E-3,-4.14377E-2,4.6477925E-2,-2.9272908E-2,-4.9437005E-2,1.1272357E-2,2.3620779E-2,-2.5814623E-2,-6.828844E-2,1.590563E-3],"categories":[],"categories_nodes":[],"categories_segments":[],"categories_sizes":[],"default_left":[0,0,0,0,0,0,0,0,0,0,0,0,0,0,0,0,0,0,0,0,0,0,0,0,0,0,0,0,0,0,0,0,0,0,0,0,0,0,0,0,0,0,0,0,0,0,0],"id":26,"left_children":[1,3,5,7,9,-1,11,13,15,17,19,-1,-1,21,-1,23,25,27,29,31,-1,33,-1,35,37,39,41,-1,-1,43,45,-1,-1,-1,-1,-1,-1,-1,-1,-1,-1,-1,-1,-1,-1,-1,-1],"loss_changes":[4.6980247E0,4.526371E0,1.5985684E0,5.012803E0,1.2495107E1,0E0,2.9298162E-1,2.8647037E0,4.978879E0,6.7034483E0,2.612669E0,0E0,0E0,1.9813353E0,0E0,5.6873164E0,6.006513E0,1.9843304E0,5.3728523E0,4.6077538E-1,0E0,8.0845374E-1,0E0,9.789572E-1,4.586549E0,4.173888E0,3.7984552E0,0E0,0E0,3.8525343E0,2.4266896E0,0E0,0E0,0E0,0E0,0E0,0E0,0E0,0E0,0E0,0E0,0E0,0E0,0E0,0E0,0E0,0E0],"parents":[2147483647,0,0,1,1,2,2,3,3,4,4,6,6,7,7,8,8,9,9,10,10,13,13,15,15,16,16,17,17,18,18,19,19,21,21,23,23,24,24,25,25,26,26,29,29,30,30],"right_children":[2,4,6,8,10,-1,12,14,16,18,20,-1,-1,22,-1,24,26,28,30,32,-1,34,-1,36,38,40,42,-1,-1,44,46,-1,-1,-1,-1,-1,-1,-1,-1,-1,-1,-1,-1,-1,-1,-1,-1],"split_conditions":[1E0,1E0,0E0,0E0,1E0,7.509784E-3,1E0,2E0,1E0,0E0,3E0,-5.7997983E-2,-1.6471352E-2,2E0,6.2225927E-2,0E0,1E0,1E0,1E0,1E0,1.08622825E-2,1E0,4.0420115E-2,1E0,1E0,1E0,2E0,3.8903747E-3,-6.876724E-2,1E0,2E0,-6.867682E-2,-1.8211564E-2,4.9803145E-3,-3.833901E-2,1.5440031E-2,6.060737E-2,-1.912822E-3,-4.14377E-2,4.6477925E-2,-2.9272908E-2,-4.9437005E-2,1.1272357E-2,2.3620779E-2,-2.5814623E-2,-6.828844E-2,1.590563E-3],"split_indices":[771,898,730,660,698,0,865,881,423,361,827,0,0,882,0,166,895,903,732,920,0,859,0,844,45,923,900,0,0,529,868,0,0,0,0,0,0,0,0,0,0,0,0,0,0,0,0],"split_type":[0,0,0,0,0,0,0,0,0,0,0,0,0,0,0,0,0,0,0,0,0,0,0,0,0,0,0,0,0,0,0,0,0,0,0,0,0,0,0,0,0,0,0,0,0,0,0],"sum_hessian":[3.2993503E2,3.2350485E2,6.430157E0,2.2980206E2,9.370281E1,1.2117047E0,5.2184525E0,7.6471376E0,2.2215492E2,8.639203E1,7.310783E0,3.6049833E0,1.6134689E0,4.187203E0,3.4599345E0,1.9910623E2,2.3048689E1,3.2118833E0,8.3180145E1,6.0887904E0,1.2219927E0,2.9260414E0,1.2611617E0,5.9232965E0,1.9318294E2,5.6300535E0,1.7418634E1,1.2214303E0,1.990453E0,7.929948E1,3.8806689E0,4.607367E0,1.4814234E0,1.6917783E0,1.2342631E0,3.0951233E0,2.8281732E0,1.8653581E2,6.6471305E0,3.4120002E0,2.2180533E0,1.4730626E1,2.688008E0,7.5942764E1,3.3567126E0,1.4709327E0,2.4097362E0],"tree_param":{"num_deleted":"0","num_feature":"929","num_nodes":"47","size_leaf_vector":"1"}},{"base_weights":[-4.2488286E-3,-1.9505259E-2,8.919566E-1,-4.4929743E-2,5.3546625E-1,5.701242E-2,-3.2176436E-3,-4.7851127E-1,-5.1575983E-3,-4.6303648E-1,8.3030176E-1,-6.377932E-1,6.945636E-1,4.67822E-2,-3.7617046E-1,-6.4625464E-2,2.9031882E-2,-1.565743E-2,1.0179677E0,1.9931706E-2,-7.361657E-1,4.0002065E-3,4.864878E-2,-8.032286E-1,7.2427645E-2,-5.057534E-1,7.9409397E-1,1.1494138E0,1.2044352E-3,-4.365619E-2,9.992551E-3,-4.9131483E-2,-1.3804157E-3,-9.720537E-4,1.4565739E-2,3.1279802E-2,-3.0699769E-2,5.396974E-2,4.6579563E-3,6.641988E-2,-9.559763E-5],"categories":[],"categories_nodes":[],"categories_segments":[],"categories_sizes":[],"default_left":[0,0,0,0,0,0,0,0,0,0,0,0,0,0,0,0,0,0,0,0,0,0,0,0,0,0,0,0,0,0,0,0,0,0,0,0,0,0,0,0,0],"id":27,"left_children":[1,3,5,7,9,-1,-1,11,13,15,17,19,21,23,25,-1,-1,-1,27,-1,29,-1,-1,31,33,35,37,39,-1,-1,-1,-1,-1,-1,-1,-1,-1,-1,-1,-1,-1],"loss_changes":[4.5353327E0,4.622149E0,1.3917313E0,5.386861E0,4.609785E0,0E0,0E0,5.3474364E0,5.553521E0,4.138718E0,2.773378E0,2.7028294E0,5.4096556E-1,5.570857E0,5.7682323E0,0E0,0E0,0E0,1.2867393E0,0E0,2.986352E0,0E0,0E0,1.0149531E0,4.9604692E0,4.3606176E0,6.827657E-1,1.8292704E0,0E0,0E0,0E0,0E0,0E0,0E0,0E0,0E0,0E0,0E0,0E0,0E0,0E0],"parents":[2147483647,0,0,1,1,2,2,3,3,4,4,7,7,8,8,9,9,10,10,11,11,12,12,13,13,14,14,18,18,20,20,23,23,24,24,25,25,26,26,27,27],"right_children":[2,4,6,8,10,-1,-1,12,14,16,18,20,22,24,26,-1,-1,-1,28,-1,30,-1,-1,32,34,36,38,40,-1,-1,-1,-1,-1,-1,-1,-1,-1,-1,-1,-1,-1],"split_conditions":[1E0,1E0,1E0,0E0,0E0,5.701242E-2,-3.2176436E-3,1E0,1E0,1E0,0E0,0E0,1E0,0E0,1E0,-6.4625464E-2,2.9031882E-2,-1.565743E-2,1E0,1.9931706E-2,2E0,4.0002065E-3,4.864878E-2,1E0,1E0,0E0,1E0,3E0,1.2044352E-3,-4.365619E-2,9.992551E-3,-4.9131483E-2,-1.3804157E-3,-9.720537E-4,1.4565739E-2,3.1279802E-2,-3.0699769E-2,5.396974E-2,4.6579563E-3,6.641988E-2,-9.559763E-5],"split_indices":[733,802,653,657,617,0,0,115,542,872,666,597,892,732,689,0,0,0,318,0,900,0,0,821,898,199,851,827,0,0,0,0,0,0,0,0,0,0,0,0,0],"split_type":[0,0,0,0,0,0,0,0,0,0,0,0,0,0,0,0,0,0,0,0,0,0,0,0,0,0,0,0,0,0,0,0,0,0,0,0,0,0,0,0,0],"sum_hessian":[3.2943E2,3.2487772E2,4.552275E0,3.115251E2,1.3352619E1,3.4612656E0,1.0910094E0,2.5248102E1,2.8627698E2,2.9138741E0,1.0438745E1,2.2631474E1,2.6166291E0,2.5188794E2,3.4389046E1,1.4906998E0,1.4231743E0,1.3774265E0,9.061318E0,1.6972628E0,2.093421E1,1.2171911E0,1.3994381E0,6.489071E0,2.4539888E2,3.1471992E1,2.9170518E0,7.8646774E0,1.1966408E0,1.8320713E1,2.613497E0,5.0533385E0,1.4357325E0,1.7349344E2,7.190543E1,2.330798E0,2.9141195E1,1.6894577E0,1.2275941E0,6.673435E0,1.1912421E0],"tree_param":{"num_deleted":"0","num_feature":"929","num_nodes":"41","size_leaf_vector":"1"}},{"base_weights":[-3.6133707E-3,6.363141E-3,-6.616569E-2,1.9005388E-2,-4.97779E-2,3.259396E-3,9.795779E-1,-4.7300252E-1,3.4062814E-2,1.172684E-2,5.5365253E-2,4.7271293E-1,-7.5475085E-1,1.8466333E-2,5.477183E-2,-1.4390635E-3,5.128569E-2,-5.703303E-2,-7.277027E-3,-5.9192756E-4,2.89524E-2],"categories":[],"categories_nodes":[],"categories_segments":[],"categories_sizes":[],"default_left":[0,0,0,0,0,0,0,0,0,0,0,0,0,0,0,0,0,0,0,0,0],"id":28,"left_children":[1,3,-1,5,-1,7,9,11,13,-1,-1,15,17,19,-1,-1,-1,-1,-1,-1,-1],"loss_changes":[4.3534307E0,4.180339E0,0E0,4.918898E0,0E0,4.7279634E0,2.3942757E-1,5.5734863E0,4.988928E0,0E0,0E0,1.446335E0,3.4708595E0,5.0903754E0,0E0,0E0,0E0,0E0,0E0,0E0,0E0],"parents":[2147483647,0,0,1,1,3,3,5,5,6,6,7,7,8,8,11,11,12,12,13,13],"right_children":[2,4,-1,6,-1,8,10,12,14,-1,-1,16,18,20,-1,-1,-1,-1,-1,-1,-1],"split_conditions":[1E0,1E0,-6.616569E-2,1E0,-4.97779E-2,0E0,0E0,1E0,1E0,1.172684E-2,5.5365253E-2,1E0,2E0,1E0,5.477183E-2,-1.4390635E-3,5.128569E-2,-5.703303E-2,-7.277027E-3,-5.9192756E-4,2.89524E-2],"split_indices":[752,236,0,733,0,172,255,885,748,0,0,913,841,781,0,0,0,0,0,0,0],"split_type":[0,0,0,0,0,0,0,0,0,0,0,0,0,0,0,0,0,0,0,0,0],"sum_hessian":[3.290173E2,3.2753644E2,1.4808918E0,3.2442386E2,3.1125517E0,3.201788E2,4.2450733E0,1.8578281E1,3.0160052E2,1.036329E0,3.2087445E0,4.1088257E0,1.4469455E1,2.9823547E2,3.3650575E0,2.6518888E0,1.4569368E0,8.324112E0,6.145343E0,2.838685E2,1.4366967E1],"tree_param":{"num_deleted":"0","num_feature":"929","num_nodes":"21","size_leaf_vector":"1"}},{"base_weights":[-3.3623066E-3,1.3892545E-2,-7.638032E-1,2.3847982E-2,-6.3989066E-2,-9.6957844E-1,7.71214E-3,4.6992127E-2,-5.435645E-1,-5.831356E-2,-1.1920041E-2,8.096549E-2,-4.6397978E-1,-8.519438E-1,2.6914164E-1,-1.4345825E-2,3.161161E-1,1.8868367E-1,-8.254014E-1,-1.0923426E0,2.219825E-2,4.9736433E-2,-3.3192493E-2,-1.7888641E-2,3.5754242E-3,4.4351395E-2,8.755971E-3,2.9180622E-2,-2.806958E-2,-6.1427236E-2,1.9676207E-2,-2.443984E-3,-6.540324E-2],"categories":[],"categories_nodes":[],"categories_segments":[],"categories_sizes":[],"default_left":[0,0,0,0,0,0,0,0,0,0,0,0,0,0,0,0,0,0,0,0,0,0,0,0,0,0,0,0,0,0,0,0,0],"id":29,"left_children":[1,3,5,7,-1,9,-1,11,13,-1,-1,15,17,19,21,23,25,27,29,31,-1,-1,-1,-1,-1,-1,-1,-1,-1,-1,-1,-1,-1],"loss_changes":[4.3380275E0,4.196464E0,1.535253E0,4.2538385E0,0E0,6.034684E-1,0E0,5.42384E0,3.4116848E0,0E0,0E0,6.5442166E0,4.753696E0,3.4274735E0,3.5393462E0,6.175702E0,6.6224985E0,2.6266468E0,6.739609E0,1.7945175E0,0E0,0E0,0E0,0E0,0E0,0E0,0E0,0E0,0E0,0E0,0E0,0E0,0E0],"parents":[2147483647,0,0,1,1,2,2,3,3,5,5,7,7,8,8,11,11,12,12,13,13,14,14,15,15,16,16,17,17,18,18,19,19],"right_children":[2,4,6,8,-1,10,-1,12,14,-1,-1,16,18,20,22,24,26,28,30,32,-1,-1,-1,-1,-1,-1,-1,-1,-1,-1,-1,-1,-1],"split_conditions":[1E0,1E0,1E0,1E0,-6.3989066E-2,3E0,7.71214E-3,1E0,1E0,-5.831356E-2,-1.1920041E-2,1E0,2E0,1E0,2E0,1E0,1E0,1E0,3E0,0E0,2.219825E-2,4.9736433E-2,-3.3192493E-2,-1.7888641E-2,3.5754242E-3,4.4351395E-2,8.755971E-3,2.9180622E-2,-2.806958E-2,-6.1427236E-2,1.9676207E-2,-2.443984E-3,-6.540324E-2],"split_indices":[771,752,699,775,0,827,0,698,875,0,0,898,895,918,828,882,880,638,922,716,0,0,0,0,0,0,0,0,0,0,0,0,0],"split_type":[0,0,0,0,0,0,0,0,0,0,0,0,0,0,0,0,0,0,0,0,0,0,0,0,0,0,0,0,0,0,0,0,0],"sum_hessian":[3.28801E2,3.224658E2,6.3352084E0,3.209773E2,1.4885073E0,5.129357E0,1.2058517E0,3.092793E2,1.1697988E1,3.573104E0,1.556253E0,2.9078708E2,1.8492226E1,8.445199E0,3.2527893E0,2.0758688E2,8.320019E1,6.760999E0,1.1731227E1,7.2562113E0,1.1889873E0,1.7925516E0,1.4602376E0,4.0883007E1,1.6670387E2,1.5430241E1,6.776995E1,4.574413E0,2.1865864E0,8.809659E0,2.9215686E0,1.4532623E0,5.802949E0],"tree_param":{"num_deleted":"0","num_feature":"929","num_nodes":"33","size_leaf_vector":"1"}},{"base_weights":[-3.677667E-3,5.4367626E-1,-2.6615396E-2,-2.3351615E-2,6.8017715E-1,-1.3164303E-2,-5.6132622E-2,-2.004192E-2,8.327985E-1,1.5497414E-2,-4.5640045E-1,1.0587407E0,-3.8688497E-3,-8.3924204E-2,2.684014E-1,8.159832E-5,-9.873962E-1,2.3952152E-1,6.536615E-2,-1.3851017E-1,3.5340822E-1,3.2498506E-1,-9.7026145E-1,-9.493449E-1,4.0436113E-1,-1.2756143E0,6.2668556E-3,-2.1255532E-2,4.0562592E-2,-3.0040033E-3,-2.6015798E-2,-4.3177225E-2,2.4262322E-2,4.623694E-2,1.0942793E-2,-7.0564166E-2,1.050885E-3,-5.620117E-2,-1.6002618E-2,3.459998E-2,-2.4642097E-2,-7.433111E-2,-7.5341235E-3],"categories":[],"categories_nodes":[],"categories_segments":[],"categories_sizes":[],"default_left":[0,0,0,0,0,0,0,0,0,0,0,0,0,0,0,0,0,0,0,0,0,0,0,0,0,0,0,0,0,0,0,0,0,0,0,0,0,0,0,0,0,0,0],"id":30,"left_children":[1,3,5,-1,7,9,-1,-1,11,13,15,17,-1,19,21,23,25,27,-1,29,31,33,35,37,39,41,-1,-1,-1,-1,-1,-1,-1,-1,-1,-1,-1,-1,-1,-1,-1,-1,-1],"loss_changes":[4.148295E0,2.1511433E0,4.658218E0,0E0,2.332708E0,3.9978173E0,0E0,0E0,2.3320184E0,7.4657555E0,4.6327605E0,1.4857874E0,0E0,5.139717E0,6.186727E0,4.712475E0,2.9934273E0,1.5915358E0,0E0,5.667455E0,4.2607956E0,4.9445496E0,1.7392509E0,4.330349E-2,2.5631967E0,1.4629831E0,0E0,0E0,0E0,0E0,0E0,0E0,0E0,0E0,0E0,0E0,0E0,0E0,0E0,0E0,0E0,0E0,0E0],"parents":[2147483647,0,0,1,1,2,2,4,4,5,5,8,8,9,9,10,10,11,11,13,13,14,14,15,15,16,16,17,17,19,19,20,20,21,21,22,22,23,23,24,24,25,25],"right_children":[2,4,6,-1,8,10,-1,-1,12,14,16,18,-1,20,22,24,26,28,-1,30,32,34,36,38,40,42,-1,-1,-1,-1,-1,-1,-1,-1,-1,-1,-1,-1,-1,-1,-1,-1,-1],"split_conditions":[0E0,0E0,1E0,-2.3351615E-2,0E0,1E0,-5.6132622E-2,-2.004192E-2,2E0,1E0,1E0,0E0,-3.8688497E-3,1E0,1E0,1E0,1E0,1E0,6.536615E-2,1E0,0E0,0E0,3E0,1E0,2E0,1E0,6.2668556E-3,-2.1255532E-2,4.0562592E-2,-3.0040033E-3,-2.6015798E-2,-4.3177225E-2,2.4262322E-2,4.623694E-2,1.0942793E-2,-7.0564166E-2,1.050885E-3,-5.620117E-2,-1.6002618E-2,3.459998E-2,-2.4642097E-2,-7.433111E-2,-7.5341235E-3],"split_indices":[660,497,236,0,614,698,0,0,828,898,905,725,0,610,529,885,926,875,0,685,172,199,881,928,923,115,0,0,0,0,0,0,0,0,0,0,0,0,0,0,0,0,0],"split_type":[0,0,0,0,0,0,0,0,0,0,0,0,0,0,0,0,0,0,0,0,0,0,0,0,0,0,0,0,0,0,0,0,0,0,0,0,0,0,0,0,0,0,0],"sum_hessian":[3.2825574E2,1.22896805E1,3.1596603E2,1.1741717E0,1.1115509E1,3.131351E2,2.830934E0,1.173965E0,9.941544E0,2.950226E2,1.8112503E1,7.8336816E0,2.1078625E0,2.1225075E2,8.277185E1,1.027727E1,7.8352327E0,2.280778E0,5.5529037E0,1.8930571E2,2.2945045E1,7.986132E1,2.9105313E0,2.6666238E0,7.6106462E0,6.107024E0,1.728209E0,1.1732883E0,1.1074897E0,1.580057E2,3.1299994E1,1.700284E0,2.1244762E1,1.0847419E1,6.90139E1,1.7211081E0,1.1894231E0,1.4718882E0,1.1947355E0,5.936236E0,1.6744103E0,4.871698E0,1.2353262E0],"tree_param":{"num_deleted":"0","num_feature":"929","num_nodes":"43","size_leaf_vector":"1"}},{"base_weights":[-4.136824E-3,1.2525265E-2,-7.458134E-1,3.1153765E-2,-6.9066757E-1,8.349241E-3,-9.529443E-1,1.659596E-3,6.556341E-1,-9.141347E-1,5.6851376E-3,-1.3437313E-2,-5.672064E-2,-8.6286956E-1,2.4274528E-2,6.9502187E-3,9.5523745E-1,-2.3993224E-1,-6.539888E-2,-1.1276761E0,2.8520697E-3,-6.285139E-1,4.9411025E-2,2.9829467E-2,-3.8061073E-1,-9.438938E-3,1.1723498E0,-4.094546E-2,2.598832E-2,-7.18948E-2,2.863529E-3,1.0067621E-2,-5.520569E-2,3.2617822E-3,-4.520339E-2,-4.7217514E-2,2.4419893E-2,2.05062E-2,6.6321425E-2],"categories":[],"categories_nodes":[],"categories_segments":[],"categories_sizes":[],"default_left":[0,0,0,0,0,0,0,0,0,0,0,0,0,0,0,0,0,0,0,0,0,0,0,0,0,0,0,0,0,0,0,0,0,0,0,0,0,0,0],"id":31,"left_children":[1,3,5,7,9,-1,11,13,15,17,-1,-1,-1,19,21,23,25,27,-1,29,-1,31,33,-1,35,-1,37,-1,-1,-1,-1,-1,-1,-1,-1,-1,-1,-1,-1],"loss_changes":[4.07176E0,4.2459726E0,1.5278587E0,5.803064E0,1.6077139E0,0E0,4.462428E-1,5.923789E0,2.7549658E0,1.4539804E0,0E0,0E0,0E0,1.9458208E0,4.874812E0,1.4831871E0,2.6337948E0,2.0441346E0,0E0,2.3046398E0,0E0,4.571028E0,4.36181E0,0E0,2.3851404E0,0E0,4.3104076E-1,0E0,0E0,0E0,0E0,0E0,0E0,0E0,0E0,0E0,0E0,0E0,0E0],"parents":[2147483647,0,0,1,1,2,2,3,3,4,4,6,6,7,7,8,8,9,9,13,13,14,14,15,15,16,16,17,17,19,19,21,21,22,22,24,24,26,26],"right_children":[2,4,6,8,10,-1,12,14,16,18,-1,-1,-1,20,22,24,26,28,-1,30,-1,32,34,-1,36,-1,38,-1,-1,-1,-1,-1,-1,-1,-1,-1,-1,-1,-1],"split_conditions":[1E0,1E0,0E0,1E0,1E0,8.349241E-3,0E0,0E0,0E0,1E0,5.6851376E-3,-1.3437313E-2,-5.672064E-2,1E0,0E0,1E0,0E0,2E0,-6.539888E-2,1E0,2.8520697E-3,1E0,1E0,2.9829467E-2,1E0,-9.438938E-3,1E0,-4.094546E-2,2.598832E-2,-7.18948E-2,2.863529E-3,1.0067621E-2,-5.520569E-2,3.2617822E-3,-4.520339E-2,-4.7217514E-2,2.4419893E-2,2.05062E-2,6.6321425E-2],"split_indices":[771,620,617,774,438,0,423,802,666,887,0,0,0,913,715,846,732,882,0,97,0,926,613,0,653,0,880,0,0,0,0,0,0,0,0,0,0,0,0],"split_type":[0,0,0,0,0,0,0,0,0,0,0,0,0,0,0,0,0,0,0,0,0,0,0,0,0,0,0,0,0,0,0,0,0,0,0,0,0,0,0],"sum_hessian":[3.27731E2,3.2149164E2,6.239338E0,3.1412573E2,7.365906E0,1.1898122E0,5.0495257E0,3.0091614E2,1.3209594E1,5.657657E0,1.708249E0,1.5786043E0,3.4709215E0,6.7237597E0,2.9419238E2,4.4967303E0,8.712863E0,2.6796644E0,2.9779925E0,5.0455017E0,1.6782575E0,1.0018203E1,2.841742E2,1.5695136E0,2.927217E0,1.4105968E0,7.302266E0,1.4764794E0,1.2031851E0,3.829474E0,1.216028E0,3.8598506E0,6.1583524E0,2.804512E2,3.7229874E0,1.7228674E0,1.2043495E0,1.84363E0,5.4586363E0],"tree_param":{"num_deleted":"0","num_feature":"929","num_nodes":"39","size_leaf_vector":"1"}},{"base_weights":[-4.557379E-3,-1.866047E-2,8.458708E-1,-7.098851E-1,4.8868346E-4,5.4491162E-2,-3.4879346E-3,-9.479887E-1,3.3062504E-4,2.597181E-2,-5.273705E-1,-1.1536076E0,-6.8515944E-3,-1.2032516E-4,5.88141E-1,-7.28035E-1,4.7222193E-2,-1.0113175E-2,-6.976259E-2,8.821044E-1,-1.8946202E-2,-4.7854644E-1,8.666622E-1,7.454756E-2,-1.0843465E0,6.383032E-2,-1.9068113E-2,3.6793817E-2,-2.0803208E-3,-5.824986E-2,2.2467725E-2,-1.5562886E-2,5.3362906E-2,-2.47108E-2,4.610618E-2,-6.888617E-2,2.5434444E-2],"categories":[],"categories_nodes":[],"categories_segments":[],"categories_sizes":[],"default_left":[0,0,0,0,0,0,0,0,0,0,0,0,0,0,0,0,0,0,0,0,0,0,0,0,0,0,0,0,0,0,0,0,0,0,0,0,0],"id":32,"left_children":[1,3,5,7,9,-1,-1,11,-1,13,15,17,-1,19,21,23,-1,-1,-1,25,27,29,31,33,35,-1,-1,-1,-1,-1,-1,-1,-1,-1,-1,-1,-1],"loss_changes":[3.9539998E0,4.288663E0,1.2773271E0,1.4963012E0,4.2676787E0,0E0,0E0,9.361954E-1,0E0,4.439177E0,5.0028243E0,8.902807E-1,0E0,4.8367324E0,4.4027843E0,3.9193163E0,0E0,0E0,0E0,3.5196004E0,4.9075513E0,2.7041526E0,2.9313183E0,2.8962536E0,5.075367E0,0E0,0E0,0E0,0E0,0E0,0E0,0E0,0E0,0E0,0E0,0E0,0E0],"parents":[2147483647,0,0,1,1,2,2,3,3,4,4,7,7,9,9,10,10,11,11,13,13,14,14,15,15,19,19,20,20,21,21,22,22,23,23,24,24],"right_children":[2,4,6,8,10,-1,-1,12,-1,14,16,18,-1,20,22,24,-1,-1,-1,26,28,30,32,34,36,-1,-1,-1,-1,-1,-1,-1,-1,-1,-1,-1,-1],"split_conditions":[1E0,0E0,1E0,1E0,1E0,5.4491162E-2,-3.4879346E-3,1E0,3.3062504E-4,1E0,1E0,0E0,-6.8515944E-3,0E0,0E0,0E0,4.7222193E-2,-1.0113175E-2,-6.976259E-2,1E0,0E0,1E0,0E0,1E0,1E0,6.383032E-2,-1.9068113E-2,3.6793817E-2,-2.0803208E-3,-5.824986E-2,2.2467725E-2,-1.5562886E-2,5.3362906E-2,-2.47108E-2,4.610618E-2,-6.888617E-2,2.5434444E-2],"split_indices":[733,184,653,898,45,0,0,851,0,802,628,638,0,684,617,681,0,0,0,305,371,853,666,875,927,0,0,0,0,0,0,0,0,0,0,0,0],"split_type":[0,0,0,0,0,0,0,0,0,0,0,0,0,0,0,0,0,0,0,0,0,0,0,0,0,0,0,0,0,0,0,0,0,0,0,0,0],"sum_hessian":[3.2735797E2,3.2297986E2,4.378085E0,7.7340345E0,3.1524585E2,3.306804E0,1.0712812E0,5.5624547E0,2.1715796E0,3.016348E2,1.3611035E1,4.100294E0,1.4621605E0,2.8921133E2,1.242347E1,1.2422697E1,1.188339E0,1.2026266E0,2.8976676E0,5.084485E0,2.8412686E2,2.4235451E0,9.999925E0,4.062592E0,8.360105E0,3.8667424E0,1.2177427E0,7.3637114E0,2.7676312E2,1.2461432E0,1.177402E0,1.3748713E0,8.625053E0,2.6806536E0,1.3819387E0,7.1740704E0,1.1860341E0],"tree_param":{"num_deleted":"0","num_feature":"929","num_nodes":"37","size_leaf_vector":"1"}},{"base_weights":[-4.0914156E-3,-5.353008E-1,1.7925218E-2,-7.7628475E-1,3.4510266E-2,3.3308563E-1,-2.6514402E-2,2.8788606E-2,-9.944337E-1,4.3409762E-1,-6.1460745E-2,8.2130115E-5,-7.062689E-1,1.3680041E-2,-1.2698306E0,-5.5547315E-1,6.146625E-1,3.6340374E-2,-5.187659E-1,-9.7187376E-1,1.2057017E-2,-7.489748E-2,-2.4129243E-3,-9.0498376E-1,2.5005132E-2,7.756636E-1,-9.489371E-1,-6.598316E-1,6.420694E-2,-7.226737E-1,3.806013E-1,-6.659258E-2,-3.261553E-1,-6.1214596E-2,3.0335907E-3,4.7369525E-2,-6.2569366E-3,-1.6324403E-2,-5.688029E-2,-5.099204E-2,3.4062408E-2,3.693008E-2,1.6474918E-3,9.3197933E-4,-5.9788413E-2,4.59931E-2,-9.671793E-3,-3.865681E-2,1.757028E-2],"categories":[],"categories_nodes":[],"categories_segments":[],"categories_sizes":[],"default_left":[0,0,0,0,0,0,0,0,0,0,0,0,0,0,0,0,0,0,0,0,0,0,0,0,0,0,0,0,0,0,0,0,0,0,0,0,0,0,0,0,0,0,0,0,0,0,0,0,0],"id":33,"left_children":[1,3,5,7,-1,9,11,-1,13,15,-1,17,19,-1,21,23,25,27,29,31,-1,-1,-1,33,-1,35,37,39,41,43,45,-1,47,-1,-1,-1,-1,-1,-1,-1,-1,-1,-1,-1,-1,-1,-1,-1,-1],"loss_changes":[3.845915E0,4.400593E0,4.4336495E0,3.936963E0,0E0,6.706667E0,5.022708E0,0E0,3.905425E0,7.0384727E0,0E0,5.067272E0,2.8666773E0,0E0,2.3097095E0,2.7801642E0,8.834919E0,4.9265013E0,3.5015302E0,1.510953E0,0E0,0E0,0E0,1.6454401E0,0E0,4.715727E0,3.4110785E-2,5.415767E0,5.097637E0,5.1731954E0,1.3872782E0,0E0,1.5800023E0,0E0,0E0,0E0,0E0,0E0,0E0,0E0,0E0,0E0,0E0,0E0,0E0,0E0,0E0,0E0,0E0],"parents":[2147483647,0,0,1,1,2,2,3,3,5,5,6,6,8,8,9,9,11,11,12,12,14,14,15,15,16,16,17,17,18,18,19,19,23,23,25,25,26,26,27,27,28,28,29,29,30,30,32,32],"right_children":[2,4,6,8,-1,10,12,-1,14,16,-1,18,20,-1,22,24,26,28,30,32,-1,-1,-1,34,-1,36,38,40,42,44,46,-1,48,-1,-1,-1,-1,-1,-1,-1,-1,-1,-1,-1,-1,-1,-1,-1,-1],"split_conditions":[0E0,1E0,0E0,0E0,3.4510266E-2,1E0,1E0,2.8788606E-2,1E0,0E0,-6.1460745E-2,1E0,1E0,1.3680041E-2,1E0,2E0,1E0,0E0,3E0,1E0,1.2057017E-2,-7.489748E-2,-2.4129243E-3,1E0,2.5005132E-2,2E0,2E0,1E0,0E0,2E0,1E0,-6.659258E-2,1E0,-6.1214596E-2,3.0335907E-3,4.7369525E-2,-6.2569366E-3,-1.6324403E-2,-5.688029E-2,-5.099204E-2,3.4062408E-2,3.693008E-2,1.6474918E-3,9.3197933E-4,-5.9788413E-2,4.59931E-2,-9.671793E-3,-3.865681E-2,1.757028E-2],"split_indices":[738,773,199,279,0,639,775,0,828,647,0,698,859,0,199,891,728,481,922,851,0,0,0,699,0,831,828,243,489,895,828,0,853,0,0,0,0,0,0,0,0,0,0,0,0,0,0,0,0],"split_type":[0,0,0,0,0,0,0,0,0,0,0,0,0,0,0,0,0,0,0,0,0,0,0,0,0,0,0,0,0,0,0,0,0,0,0,0,0,0,0,0,0,0,0,0,0,0,0,0,0],"sum_hessian":[3.2701837E2,1.2086488E1,3.149319E2,1.0406675E1,1.6798129E0,3.8116814E1,2.7681506E2,1.2180455E0,9.18863E0,3.648029E1,1.6365249E0,2.6735425E2,9.460803E0,1.6407051E0,7.5479245E0,5.3089156E0,3.1171373E1,2.5076051E2,1.6593737E1,7.3690715E0,2.0917313E0,6.16956E0,1.3783647E0,4.0955167E0,1.2133988E0,2.8718231E1,2.4531417E0,8.77836E0,2.4198216E2,1.3687029E1,2.9067085E0,4.0491476E0,3.319924E0,2.8765187E0,1.2189978E0,2.4076605E1,4.641627E0,1.2057285E0,1.2474132E0,7.1093984E0,1.6689616E0,9.71629E0,2.3226587E2,5.706249E0,7.9807796E0,1.1881223E0,1.7185863E0,1.9153361E0,1.404588E0],"tree_param":{"num_deleted":"0","num_feature":"929","num_nodes":"49","size_leaf_vector":"1"}},{"base_weights":[-4.5016157E-3,-2.9130282E-2,4.6444294E-1,-6.345234E-1,-5.6822044E-3,4.1650277E-2,8.8056386E-1,-9.2081535E-1,3.357107E-2,3.1838182E-1,-5.2467056E-2,-4.8342776E-1,4.3747827E-2,5.6115657E-2,2.2230728E-3,-1.1035147E0,1.0077654E-2,4.294932E-1,-9.221105E-1,2.5684485E-1,-1.09739415E-1,-8.765202E-1,2.769195E-2,5.950346E-3,-6.7612715E-2,-5.3414756E-1,6.1482036E-1,-1.5866974E-2,-5.5286344E-2,4.022183E-1,-8.0715567E-1,-3.345597E-2,-6.1177397E-1,-6.653217E-2,-6.054128E-3,-5.7905495E-2,4.0801815E-3,3.677082E-2,-5.475647E-2,3.0788183E-2,-2.1457447E-2,2.8540477E-2,-6.781796E-2,3.685721E-2,-2.9978878E-3,-3.524383E-2,3.437641E-2],"categories":[],"categories_nodes":[],"categories_segments":[],"categories_sizes":[],"default_left":[0,0,0,0,0,0,0,0,0,0,0,0,0,0,0,0,0,0,0,0,0,0,0,0,0,0,0,0,0,0,0,0,0,0,0,0,0,0,0,0,0,0,0,0,0,0,0],"id":34,"left_children":[1,3,5,7,9,11,13,15,-1,17,19,21,-1,-1,-1,23,-1,25,27,29,31,33,-1,-1,-1,35,37,-1,-1,39,41,43,45,-1,-1,-1,-1,-1,-1,-1,-1,-1,-1,-1,-1,-1,-1],"loss_changes":[3.7951832E0,4.425802E0,2.8481638E0,4.9649963E0,4.586427E0,4.4410686E0,1.6104231E0,2.2642126E0,0E0,5.6565475E0,4.7092295E0,3.0450697E0,0E0,0E0,0E0,2.8119068E0,0E0,6.7059155E0,3.2802343E-2,6.7565193E0,8.544986E0,1.5334535E0,0E0,0E0,0E0,2.5131493E0,7.0774336E0,0E0,0E0,6.8776717E0,4.808653E0,4.030932E0,4.046424E0,0E0,0E0,0E0,0E0,0E0,0E0,0E0,0E0,0E0,0E0,0E0,0E0,0E0,0E0],"parents":[2147483647,0,0,1,1,2,2,3,3,4,4,5,5,6,6,7,7,9,9,10,10,11,11,15,15,17,17,18,18,19,19,20,20,21,21,25,25,26,26,29,29,30,30,31,31,32,32],"right_children":[2,4,6,8,10,12,14,16,-1,18,20,22,-1,-1,-1,24,-1,26,28,30,32,34,-1,-1,-1,36,38,-1,-1,40,42,44,46,-1,-1,-1,-1,-1,-1,-1,-1,-1,-1,-1,-1,-1,-1],"split_conditions":[1E0,0E0,2E0,1E0,0E0,3E0,1E0,1E0,3.357107E-2,1E0,0E0,1E0,4.3747827E-2,5.6115657E-2,2.2230728E-3,1E0,1.0077654E-2,0E0,2E0,1E0,1E0,0E0,2.769195E-2,5.950346E-3,-6.7612715E-2,2E0,1E0,-1.5866974E-2,-5.5286344E-2,1E0,0E0,0E0,1E0,-6.653217E-2,-6.054128E-3,-5.7905495E-2,4.0801815E-3,3.677082E-2,-5.475647E-2,3.0788183E-2,-2.1457447E-2,2.8540477E-2,-6.781796E-2,3.685721E-2,-2.9978878E-3,-3.524383E-2,3.437641E-2],"split_indices":[781,738,880,773,199,881,928,917,0,728,685,243,0,0,0,828,0,647,828,281,681,725,0,0,0,827,639,0,0,725,470,371,616,0,0,0,0,0,0,0,0,0,0,0,0,0,0],"split_type":[0,0,0,0,0,0,0,0,0,0,0,0,0,0,0,0,0,0,0,0,0,0,0,0,0,0,0,0,0,0,0,0,0,0,0,0,0,0,0,0,0,0,0,0,0,0,0],"sum_hessian":[3.264307E2,3.110333E2,1.5397388E1,1.0625986E1,3.0040732E2,8.183139E0,7.214249E0,8.957261E0,1.6687249E0,3.716585E1,2.6324146E2,5.2775493E0,2.9055903E0,5.330641E0,1.8836082E0,7.7177615E0,1.2395E0,3.4710583E1,2.4552681E0,4.058245E1,2.2265901E2,3.9395506E0,1.3379984E0,1.3929857E0,6.3247757E0,5.2951813E0,2.9415401E1,1.2072531E0,1.248015E0,3.6251427E1,4.3310246E0,1.9421497E2,2.844405E1,1.984918E0,1.9546328E0,2.1925676E0,3.102614E0,2.8009893E1,1.4055092E0,2.9049177E1,7.2022486E0,1.2230419E0,3.1079829E0,5.565663E0,1.886493E2,2.6969055E1,1.4749956E0],"tree_param":{"num_deleted":"0","num_feature":"929","num_nodes":"47","size_leaf_vector":"1"}},{"base_weights":[-4.5557884E-3,4.885132E-3,-6.186902E-2,-6.433343E-1,2.3256429E-2,-9.482722E-1,4.0062547E-2,4.9116674E-1,-9.3741E-3,-1.7483108E-3,-1.1347574E0,6.974382E-1,-4.3194752E-2,-3.4814484E-2,5.3155464E-1,-6.644007E-2,-7.83994E-3,-4.914057E-1,9.0456176E-1,-8.651696E-1,-1.1160061E-2,7.6420647E-1,-3.3747517E-2,-4.1054994E-2,3.4351533E-3,-2.8102318E-2,5.4253187E-2,-5.2023936E-2,2.7568047E-3,-1.8349838E-3,2.7613912E-2,5.597979E-4,6.125732E-2],"categories":[],"categories_nodes":[],"categories_segments":[],"categories_sizes":[],"default_left":[0,0,0,0,0,0,0,0,0,0,0,0,0,0,0,0,0,0,0,0,0,0,0,0,0,0,0,0,0,0,0,0,0],"id":35,"left_children":[1,3,-1,5,7,9,-1,11,13,-1,15,17,-1,19,21,-1,-1,23,25,27,29,31,-1,-1,-1,-1,-1,-1,-1,-1,-1,-1,-1],"loss_changes":[3.810725E0,3.8900597E0,0E0,4.725708E0,4.8507104E0,1.3044357E0,0E0,6.3912234E0,4.1151376E0,0E0,1.0292721E0,5.006652E0,0E0,5.5932226E0,4.2864375E0,0E0,0E0,6.837078E-1,4.880002E0,1.3299985E0,4.025985E0,4.057885E0,0E0,0E0,0E0,0E0,0E0,0E0,0E0,0E0,0E0,0E0,0E0],"parents":[2147483647,0,0,1,1,3,3,4,4,5,5,7,7,8,8,10,10,11,11,13,13,14,14,17,17,18,18,19,19,20,20,21,21],"right_children":[2,4,-1,6,8,10,-1,12,14,-1,16,18,-1,20,22,-1,-1,24,26,28,30,32,-1,-1,-1,-1,-1,-1,-1,-1,-1,-1,-1],"split_conditions":[1E0,0E0,-6.186902E-2,1E0,0E0,0E0,4.0062547E-2,2E0,1E0,-1.7483108E-3,3E0,0E0,-4.3194752E-2,0E0,1E0,-6.644007E-2,-7.83994E-3,1E0,0E0,1E0,1E0,0E0,-3.3747517E-2,-4.1054994E-2,3.4351533E-3,-2.8102318E-2,5.4253187E-2,-5.2023936E-2,2.7568047E-3,-1.8349838E-3,2.7613912E-2,5.597979E-4,6.125732E-2],"split_indices":[752,732,0,666,672,626,0,849,774,0,827,673,0,802,620,0,0,849,644,97,802,666,0,0,0,0,0,0,0,0,0,0,0],"split_type":[0,0,0,0,0,0,0,0,0,0,0,0,0,0,0,0,0,0,0,0,0,0,0,0,0,0,0,0,0,0,0,0,0],"sum_hessian":[3.258907E2,3.2440247E2,1.4882234E0,8.003008E0,3.1639944E2,6.8917866E0,1.1112212E0,1.971017E1,2.9668927E2,1.3699577E0,5.5218287E0,1.7527407E1,2.1827638E0,2.842561E2,1.2433189E1,4.3082476E0,1.2135813E0,2.3969455E0,1.5130462E1,6.887978E0,2.773681E2,1.0730592E1,1.7025983E0,1.2155039E0,1.1814414E0,1.4264579E0,1.3704003E1,5.6761484E0,1.2118297E0,2.6623505E2,1.1133078E1,4.4633565E0,6.267235E0],"tree_param":{"num_deleted":"0","num_feature":"929","num_nodes":"33","size_leaf_vector":"1"}},{"base_weights":[-4.758906E-3,1.1162867E-2,-7.2263783E-1,3.1589493E-2,-5.649784E-1,7.8043207E-3,-9.247827E-1,1.7679976E-2,6.0192775E-2,-7.18911E-1,1.9990606E-2,-5.4613095E-2,-1.3751348E-2,7.4706805E-1,-1.6169526E-3,-1.0422555E0,2.1147348E-2,-2.5459353E-2,1.1145898E0,-3.1722493E-2,4.3225238E-1,-6.5201275E-2,-1.2177151E-2,1.8411437E-2,-1.5851669E-2,6.1632324E-2,1.2340979E-2,-3.3982284E-3,2.5184968E-2,-2.1102622E-2,2.6600823E-2],"categories":[],"categories_nodes":[],"categories_segments":[],"categories_sizes":[],"default_left":[0,0,0,0,0,0,0,0,0,0,0,0,0,0,0,0,0,0,0,0,0,0,0,0,0,0,0,0,0,0,0],"id":36,"left_children":[1,3,5,7,9,-1,11,13,-1,15,-1,-1,-1,17,19,21,23,-1,25,27,29,-1,-1,-1,-1,-1,-1,-1,-1,-1,-1],"loss_changes":[3.739712E0,3.7882996E0,1.4053543E0,5.03932E0,1.9244702E0,0E0,3.4336138E-1,4.3325543E0,0E0,2.3823314E0,0E0,0E0,0E0,4.230595E0,3.9427297E0,1.1217718E0,5.8381474E-1,0E0,3.567114E-1,5.510547E0,1.893846E0,0E0,0E0,0E0,0E0,0E0,0E0,0E0,0E0,0E0,0E0],"parents":[2147483647,0,0,1,1,2,2,3,3,4,4,6,6,7,7,9,9,13,13,14,14,15,15,16,16,18,18,19,19,20,20],"right_children":[2,4,6,8,10,-1,12,14,-1,16,-1,-1,-1,18,20,22,24,-1,26,28,30,-1,-1,-1,-1,-1,-1,-1,-1,-1,-1],"split_conditions":[1E0,1E0,0E0,1E0,1E0,7.8043207E-3,1E0,0E0,6.0192775E-2,1E0,1.9990606E-2,-5.4613095E-2,-1.3751348E-2,0E0,1E0,1E0,1E0,-2.5459353E-2,1E0,1E0,0E0,-6.5201275E-2,-1.2177151E-2,1.8411437E-2,-1.5851669E-2,6.1632324E-2,1.2340979E-2,-3.3982284E-3,2.5184968E-2,-2.1102622E-2,2.6600823E-2],"split_indices":[771,796,730,632,919,0,865,775,0,821,0,0,0,610,382,318,846,0,840,657,45,0,0,0,0,0,0,0,0,0,0],"split_type":[0,0,0,0,0,0,0,0,0,0,0,0,0,0,0,0,0,0,0,0,0,0,0,0,0,0,0,0,0,0,0],"sum_hessian":[3.2548083E2,3.1938174E2,6.099089E0,3.0935886E2,1.00229E1,1.1832681E0,4.915821E0,3.0673438E2,2.6244738E0,8.863568E0,1.1593316E0,3.3669345E0,1.5488865E0,6.9338384E0,2.9980054E2,5.88428E0,2.9792879E0,1.4821439E0,5.4516945E0,2.812144E2,1.8586159E1,3.9553082E0,1.9289718E0,1.4264466E0,1.5528414E0,4.42871E0,1.0229843E0,2.642038E2,1.701058E1,1.6056939E0,1.6980465E1],"tree_param":{"num_deleted":"0","num_feature":"929","num_nodes":"31","size_leaf_vector":"1"}},{"base_weights":[-4.4552274E-3,7.1662082E-3,-9.611089E-1,6.6941273E-1,-1.3336728E-2,-1.0250572E-2,-6.122012E-2,-1.8562708E-2,8.603878E-1,6.2498987E-2,-2.2446713E-1,1.1327708E0,-2.822643E-4,9.115855E-2,-6.306077E-1,-2.8427383E-1,7.5364643E-1,4.7256197E-3,6.592887E-2,1.1806392E-1,-7.140103E-1,-8.580335E-1,2.5114352E-2,7.917715E-1,-3.3548364E-1,5.2351663E-3,5.965813E-2,4.837494E-3,6.338976E-2,-6.0876947E-2,-5.19968E-3,-5.7766974E-2,1.4363489E-2,5.6346625E-2,5.436661E-4,-8.9969095E-3,-3.8653366E-2],"categories":[],"categories_nodes":[],"categories_segments":[],"categories_sizes":[],"default_left":[0,0,0,0,0,0,0,0,0,0,0,0,0,0,0,0,0,0,0,0,0,0,0,0,0,0,0,0,0,0,0,0,0,0,0,0,0],"id":37,"left_children":[1,3,5,7,9,-1,-1,-1,11,13,15,17,-1,19,21,23,25,-1,-1,27,29,31,-1,33,35,-1,-1,-1,-1,-1,-1,-1,-1,-1,-1,-1,-1],"loss_changes":[3.6322463E0,4.3969026E0,5.295963E-1,2.2520351E0,5.0486593E0,0E0,0E0,0E0,2.0156975E0,4.6685233E0,5.087978E0,1.1263952E0,0E0,4.9322414E0,2.8383427E0,4.6320906E0,1.3224642E0,0E0,0E0,5.204997E0,2.1396334E0,3.1072521E0,0E0,1.0078006E0,5.0571117E0,0E0,0E0,0E0,0E0,0E0,0E0,0E0,0E0,0E0,0E0,0E0,0E0],"parents":[2147483647,0,0,1,1,2,2,3,3,4,4,8,8,9,9,10,10,11,11,13,13,14,14,15,15,16,16,19,19,20,20,21,21,23,23,24,24],"right_children":[2,4,6,8,10,-1,-1,-1,12,14,16,18,-1,20,22,24,26,-1,-1,28,30,32,-1,34,36,-1,-1,-1,-1,-1,-1,-1,-1,-1,-1,-1,-1],"split_conditions":[1E0,0E0,2E0,1E0,1E0,-1.0250572E-2,-6.122012E-2,-1.8562708E-2,1E0,1E0,1E0,1E0,-2.822643E-4,1E0,1E0,0E0,1E0,4.7256197E-3,6.592887E-2,1E0,2E0,1E0,2.5114352E-2,2E0,1E0,5.2351663E-3,5.965813E-2,4.837494E-3,6.338976E-2,-6.0876947E-2,-5.19968E-3,-5.7766974E-2,1.4363489E-2,5.6346625E-2,5.436661E-4,-8.9969095E-3,-3.8653366E-2],"split_indices":[736,371,868,882,638,0,0,0,840,749,679,900,0,620,722,286,855,0,0,561,880,243,0,868,725,0,0,0,0,0,0,0,0,0,0,0,0],"split_type":[0,0,0,0,0,0,0,0,0,0,0,0,0,0,0,0,0,0,0,0,0,0,0,0,0,0,0,0,0,0,0,0,0,0,0,0,0],"sum_hessian":[3.2508923E2,3.2216803E2,2.9211903E0,8.724256E0,3.134438E2,1.2138968E0,1.7072935E0,1.2063863E0,7.517869E0,2.3112883E2,8.231495E1,5.484801E0,2.0330684E0,2.2278526E2,8.343563E0,7.824031E1,4.0746346E0,1.0615702E0,4.4232306E0,2.1640721E2,6.378055E0,7.1506977E0,1.1928658E0,2.8974013E0,7.534291E1,2.1453142E0,1.9293202E0,2.1353284E2,2.8743825E0,2.9484186E0,3.4296365E0,5.6700597E0,1.4806378E0,1.7172395E0,1.180162E0,5.6625694E1,1.8717216E1],"tree_param":{"num_deleted":"0","num_feature":"929","num_nodes":"37","size_leaf_vector":"1"}},{"base_weights":[-4.102898E-3,-1.7654546E-2,8.210482E-1,-5.731411E-2,-6.231979E-3,5.3120323E-2,-3.2665015E-3,-8.041762E-1,8.489692E-3,-6.54325E-2,2.9604107E-2,-8.549897E-1,2.367257E-2,5.7543903E-3,-6.918021E-2,3.342222E-2,-5.973358E-2,2.8987134E-2,5.553996E-4],"categories":[],"categories_nodes":[],"categories_segments":[],"categories_sizes":[],"default_left":[0,0,0,0,0,0,0,0,0,0,0,0,0,0,0,0,0,0,0],"id":38,"left_children":[1,3,5,-1,7,-1,-1,9,11,-1,-1,13,15,-1,-1,17,-1,-1,-1],"loss_changes":[3.658328E0,4.138546E0,1.2003248E0,0E0,3.7583556E0,0E0,0E0,4.8571897E0,4.1441913E0,0E0,0E0,2.9603603E0,3.723435E0,0E0,0E0,3.755755E0,0E0,0E0,0E0],"parents":[2147483647,0,0,1,1,2,2,4,4,7,7,8,8,11,11,12,12,15,15],"right_children":[2,4,6,-1,8,-1,-1,10,12,-1,-1,14,16,-1,-1,18,-1,-1,-1],"split_conditions":[1E0,0E0,1E0,-5.731411E-2,0E0,5.3120323E-2,-3.2665015E-3,1E0,0E0,-6.54325E-2,2.9604107E-2,0E0,1E0,5.7543903E-3,-6.918021E-2,0E0,-5.973358E-2,2.8987134E-2,5.553996E-4],"split_indices":[733,776,653,0,652,0,0,905,624,0,0,511,752,0,0,268,0,0,0],"split_type":[0,0,0,0,0,0,0,0,0,0,0,0,0,0,0,0,0,0,0],"sum_hessian":[3.2486136E2,3.2057507E2,4.2862744E0,2.2165082E0,3.1835858E2,3.2128358E0,1.0734388E0,4.795717E0,3.1356287E2,3.5689764E0,1.2267405E0,4.4624424E0,3.091004E2,1.8499055E0,2.612537E0,3.0761136E2,1.4890552E0,1.109092E1,2.9652045E2],"tree_param":{"num_deleted":"0","num_feature":"929","num_nodes":"19","size_leaf_vector":"1"}},{"base_weights":[-4.3143798E-3,5.1296645E-1,-2.5697311E-2,-2.2324027E-2,6.459491E-1,-7.637051E-1,-5.6378944E-3,-1.8658694E-2,7.9178005E-1,2.8483449E-2,-1.1164601E0,-6.1166257E-1,1.8568112E-2,1.015418E0,-4.096179E-3,-5.8980784E-3,-6.4171664E-2,3.4182586E-2,-1.100013E0,7.056038E-1,-5.6098658E-3,2.3059528E-1,6.270542E-2,4.9001742E-2,-4.6421736E-1,-3.7041762E-1,-7.079937E-2,1.0397477E0,-1.7027173E-2,-2.806982E-2,6.491924E-1,-1.9594694E-2,3.8571525E-2,-4.6938285E-2,1.6814547E-2,-3.524694E-2,7.1720006E-3,6.736583E-2,-1.1979075E-2,-2.3012085E-2,6.187148E-4,5.1024843E-2,-8.070541E-3],"categories":[],"categories_nodes":[],"categories_segments":[],"categories_sizes":[],"default_left":[0,0,0,0,0,0,0,0,0,0,0,0,0,0,0,0,0,0,0,0,0,0,0,0,0,0,0,0,0,0,0,0,0,0,0,0,0,0,0,0,0,0,0],"id":39,"left_children":[1,3,5,-1,7,9,11,-1,13,-1,15,17,19,21,-1,-1,-1,23,25,27,29,31,-1,-1,33,35,-1,37,-1,39,41,-1,-1,-1,-1,-1,-1,-1,-1,-1,-1,-1,-1],"loss_changes":[3.615394E0,1.9439485E0,4.6396065E0,0E0,2.049882E0,4.5367904E0,4.5060673E0,0E0,2.163598E0,0E0,9.9833775E-1,3.7585845E0,4.914241E0,1.3128595E0,0E0,0E0,0E0,3.3068075E0,1.0311594E0,3.8696375E0,4.23239E0,1.3862739E0,0E0,0E0,2.0785336E0,6.8445885E-1,0E0,3.419136E0,0E0,4.864819E0,3.0373068E0,0E0,0E0,0E0,0E0,0E0,0E0,0E0,0E0,0E0,0E0,0E0,0E0],"parents":[2147483647,0,0,1,1,2,2,4,4,5,5,6,6,8,8,10,10,11,11,12,12,13,13,17,17,18,18,19,19,20,20,21,21,24,24,25,25,27,27,29,29,30,30],"right_children":[2,4,6,-1,8,10,12,-1,14,-1,16,18,20,22,-1,-1,-1,24,26,28,30,32,-1,-1,34,36,-1,38,-1,40,42,-1,-1,-1,-1,-1,-1,-1,-1,-1,-1,-1,-1],"split_conditions":[0E0,0E0,0E0,-2.2324027E-2,0E0,0E0,0E0,-1.8658694E-2,2E0,2.8483449E-2,0E0,1E0,0E0,0E0,-4.096179E-3,-5.8980784E-3,-6.4171664E-2,1E0,1E0,1E0,1E0,1E0,6.270542E-2,4.9001742E-2,1E0,1E0,-7.079937E-2,3E0,-1.7027173E-2,0E0,3E0,-1.9594694E-2,3.8571525E-2,-4.6938285E-2,1.6814547E-2,-3.524694E-2,7.1720006E-3,6.736583E-2,-1.1979075E-2,-2.3012085E-2,6.187148E-4,5.1024843E-2,-8.070541E-3],"split_indices":[660,497,732,0,614,542,738,0,828,0,467,891,530,725,0,0,0,887,869,336,75,875,0,0,898,859,0,881,0,309,841,0,0,0,0,0,0,0,0,0,0,0,0],"split_type":[0,0,0,0,0,0,0,0,0,0,0,0,0,0,0,0,0,0,0,0,0,0,0,0,0,0,0,0,0,0,0,0,0,0,0,0,0,0,0,0,0,0,0],"sum_hessian":[3.2466843E2,1.1975522E1,3.126929E2,1.1708204E0,1.0804702E1,7.2932744E0,3.0539963E2,1.157399E0,9.647303E0,1.3971797E0,5.8960943E0,1.0797711E1,2.9460193E2,7.552041E0,2.0952613E0,1.0891935E0,4.806901E0,5.0496006E0,5.748111E0,9.056988E0,2.8554495E2,2.2196937E0,5.3323474E0,1.4090931E0,3.6405072E0,2.3935735E0,3.354537E0,6.8690886E0,2.187899E0,2.7700085E2,8.544096E0,1.1599773E0,1.0597165E0,2.1771574E0,1.46335E0,1.2245413E0,1.1690321E0,